6625 50
none 0.8827621 1.3720033 -1.4873856 0.08165812 0.7411806 -2.4038007 2.2919772 -0.246956 0.6392668 2.0595403 0.6368432 -0.48106948 0.8414694 -2.0688372 -1.0329975 -0.872954 0.659306 -0.5518576 -1.0316778 0.5601788 1.4528328 -2.1765783 -0.67614377 -0.75328404 1.4075593 -0.1639694 1.0820421 -0.1810064 1.6797237 0.027470598 -0.14726286 0.29284787 0.79397815 2.1204538 1.8243634 -0.6226318 0.85763556 0.625009 2.0306444 2.6523213 -0.30258524 3.0185175 1.322448 0.47747305 -0.44304115 -0.16798058 2.0307646 -0.71358126 -3.4545147 -0.5212699
use 0.2941282 1.4335192 1.5389026 -0.33654866 -0.18071455 2.649885 -0.23048794 -0.85549015 -1.2918226 1.7698318 0.3148354 0.96442 2.1615212 -0.7888234 2.315395 -0.59591085 1.655397 -0.4386905 -0.66698617 1.4032278 -2.1406016 0.71327096 -1.6875924 -1.0718275 -0.3817682 -0.59535056 0.9330361 -1.24566 -1.3493369 0.5736686 1.5733172 -1.5907946 1.5035251 -0.52396756 0.37830582 -0.2522963 0.28368238 0.9829848 -0.37160423 -1.5212646 -1.1226816 1.2951576 2.7264419 -0.8613253 -1.8662465 0.26816708 -0.45187032 -2.2496085 -0.050688043 0.8837899
system -0.17993438 -0.17271698 0.2640116 0.8899021 2.1498783 -0.8967751 -1.5301493 1.0020859 1.779846 -0.40343544 -2.8579895 0.72122854 -1.1158751 -4.2702293 0.1051612 -0.12538873 2.0884602 -0.48019937 -2.374931 -3.0782588 -2.5063353 -1.6030817 3.6037352 -1.7433125 -2.2092767 -4.827724 0.66773254 -1.3962848 -1.6308383 -0.08113108 0.7367912 -0.9331084 0.5894083 -1.3584818 3.551459 -2.1939464 0.44759622 -2.38776 1.5754442 -1.154448 1.0295779 0.39335907 -0.98256713 -0.6945946 -1.895041 -0.66159886 -3.4083242 -0.72924465 1.3267525 2.1583762
https://attack_mitre 0.6907534 -0.3889972 3.0947478 0.9998782 -6.0174017 2.8580108 -4.910217 -6.3468366 -7.035693 3.4223793 -1.1839712 -3.4174216 4.5610285 -0.82046586 3.831149 -4.7468934 -3.3139029 -3.823369 -2.3545854 -2.8314443 1.4531635 -5.3507843 -2.6166291 -1.9104036 -2.8789454 0.0053529493 -0.5797217 0.15741795 -3.1607244 2.2333171 3.9578073 5.420169 6.2925415 -0.7873397 0.52815527 1.1344401 -1.6820632 1.7768416 1.609369 -1.0942503 -5.6568813 -4.0977907 1.0238947 1.7782458 -0.18517835 2.2931387 -4.0367646 0.8181782 1.8364527 -1.099334
citation: 4.586047 2.4520197 -0.8240752 -4.327146 3.4582841 3.6518412 -1.8801396 0.2525247 1.1608704 -0.31940585 -3.4640489 2.989299 1.7654735 -1.5192863 1.9486936 -1.7395183 0.21719638 -0.430849 0.023203934 0.0103159435 2.2969525 -0.02749951 2.8898816 1.1413214 4.158077 1.1198332 -1.1793959 0.13843411 2.9328854 -2.3228989 3.4580462 -0.94856864 2.8788805 6.4358654 2.9962397 1.912531 -5.2813816 3.931464 2.045851 8.085532 1.6981277 1.3335379 -4.354555 2.7643638 0.2058359 2.9681635 -1.3466836 -0.79859114 -4.7668552 0.88457656
may 0.60892266 -0.67614776 0.11961529 0.8667423 0.47602847 -1.5499614 0.04551881 -2.0872402 2.0725963 1.4316074 0.13220972 -0.2542328 -0.69607055 0.7942679 -1.2431971 -2.6394334 0.9566946 -0.9049667 0.8897541 3.5178568 -2.0247097 0.34479833 1.8518109 1.7829754 0.70397675 -2.5838504 0.24459772 0.9351085 0.1700932 1.1321031 -0.11608956 -2.2760072 2.4049263 -0.00093512016 2.2204514 -0.37134185 -2.7105775 -1.9798539 3.553916 0.41357094 1.7924914 0.6193418 1.6736426 2.9111257 -0.6281603 -3.9962733 -0.7775672 0.8023577 -1.978396 -2.2011495
adversary -2.078094 0.5084194 1.2106552 0.8140605 2.7478375 -0.5210801 3.1727028 -1.1516613 -0.25234276 -0.17496218 1.9888053 0.35659933 2.811296 -3.5655158 -1.0396057 -0.69924957 2.6491485 3.0486593 0.73388255 -1.1038367 2.8752513 4.0611973 4.0676484 -1.2695259 3.28489 -5.772545 2.34022 -1.0266583 1.4992603 2.317972 2.39117 -2.3449106 -2.0444462 -1.4459938 -1.6190118 0.43679175 -0.88162374 -3.7967834 -0.41868877 0.052468315 -0.71745193 -0.8847335 -1.3461634 2.463944 0.055852037 -1.228444 -5.0273075 -2.4570098 -1.730936 -1.4472578
file -0.4437382 -3.0340211 -0.63882846 -2.3353274 -2.998563 1.590673 -0.48566085 2.718426 0.022228355 3.5730505 0.86644894 0.46266362 0.36013547 0.35613394 2.88441 0.6643225 2.6375802 3.2389464 2.8003738 3.5877373 -4.911808 -6.468236 0.50729126 -0.4806597 0.7861822 -6.409623 0.4616482 4.280485 0.5805342 1.2270161 -1.5577375 2.8653464 -0.3936136 -1.5323467 -1.6160221 -2.9719658 -1.0836436 4.1517406 2.2211685 -0.8823304 -2.8982642 -0.25785 -0.9014417 -2.1309114 -1.2383611 -3.4127676 -5.2484646 0.863049 1.412359 -0.72019064
attack -4.3897033 -0.55596375 0.49021214 0.2279851 5.583697 -2.9433599 1.7437317 0.5853927 -2.1867328 -4.218843 2.5721395 -0.2189783 -1.8512295 0.23141272 0.14180696 5.4085937 -2.282796 5.0054216 -0.22246175 1.2132359 2.0966928 1.3394758 -2.835393 -0.15393534 -3.5206091 1.09022 4.075685 -1.0050323 0.7510875 0.9945538 -1.3767763 3.3893723 -1.8245047 -2.6539452 -0.5754314 -1.848573 -0.03666436 -4.9264464 1.653284 1.7484257 -0.28766477 0.81508267 -0.3083367 3.8843386 -0.23105167 -5.504689 -0.68745494 3.9146767 -0.6113525 1.6511328
target -0.14210479 -1.9594955 1.2818742 1.6527221 8.329169 0.16919976 -0.63951516 -0.88844913 -1.6030315 -0.0056171524 2.9019253 -3.3043106 -3.0969007 2.6447845 -1.4061503 -1.5632119 2.368846 4.267829 -2.273909 0.98153937 0.91283244 0.06976104 1.5199049 -0.666022 -1.1401849 2.3333683 2.219619 -1.0123155 0.19744788 2.0803375 0.78485847 2.8452318 -0.94728994 -2.7720973 -3.1788025 -3.3157213 2.0988452 -0.3321575 -1.6293168 2.51196 -0.0630192 0.31672516 -3.208783 3.5780928 -2.2356205 0.48625955 -1.3401215 -0.8177878 1.9836645 4.2473555
application 1.2635171 -3.4820287 1.0655085 2.041784 -0.6583629 4.2875085 -4.7126484 -0.12570576 1.1608838 1.7916509 0.6663958 -2.599125 -3.4297092 1.0365343 -4.083848 2.5525486 -3.105748 2.448441 -2.8533955 -1.93107 -7.9867115 1.1612856 2.6132596 -2.190705 4.618376 -2.1826248 1.2911496 -0.3460015 1.9101981 -2.383639 -1.7585524 -0.8393594 -4.534777 0.33060074 -1.9982923 -1.2345986 -2.0468035 -0.64510024 -0.05036235 0.9429413 -2.0114057 -0.99800926 -0.97177434 -2.1137695 0.33739704 -5.836631 2.564305 -4.4899664 2.1132562 1.816229
user -2.9804902 1.7480875 1.7930335 -3.1549158 1.6182253 -2.3378952 -4.291979 0.30403253 2.1875021 -2.4582798 -0.21878599 -2.7487411 0.53380316 0.098215684 1.9970931 -3.6771264 -1.8513986 3.690592 2.1274118 -3.0417304 -0.43200693 0.38325265 2.9936903 -2.6405797 3.8811228 -3.7612972 -0.3259917 -2.8824873 0.1965835 3.1202748 0.06571272 2.8791816 0.6541263 -1.1732507 -2.7579 -4.63516 -1.8679419 -1.3787793 -1.6783075 -1.9514525 -1.2978526 1.4962541 -3.181767 -1.7910895 0.33953962 -2.49272 2.6082237 -0.50270265 -2.0125628 -1.702213
access 0.09151436 1.1352823 -0.9618785 2.10206 -0.28554052 -0.5256534 -2.2970774 0.57760704 5.274772 -2.647377 0.42912626 3.5925288 -0.7079236 0.025368435 3.3812325 -3.9684653 1.9870162 1.2147828 -2.622122 -2.8021429 -5.509017 -0.8138509 -0.7852935 -3.2504146 1.3379369 -2.3662965 0.21569356 -1.1345544 0.3963444 5.350376 1.660397 2.4251225 2.5866919 -2.082849 1.8288561 -0.21529226 3.5932631 -3.3578598 0.9176269 -1.1139116 -1.3101197 -0.048602372 2.6498091 2.408473 0.617853 -2.6819036 -1.6994773 -2.3733718 -4.8913646 1.5086647
information -5.8923535 -0.8238118 1.1563201 1.4044256 6.169016 -0.06740644 -2.3826208 -2.4242156 -0.5040093 4.124641 -2.721075 -0.31146467 -3.2311306 0.60366523 -0.33344868 -3.4473798 2.8787374 1.007512 4.9681287 2.1885028 0.38791192 4.5898976 1.0379881 -2.226837 3.2151003 -2.2724473 2.6626344 -0.5029194 -1.7158465 5.460772 -1.1183846 3.2713952 0.839741 0.2809686 -5.086646 -2.8167353 -1.435916 0.29316047 2.7361126 1.9663014 3.3805969 -1.6084076 2.8697557 0.283281 0.24725087 0.9478057 0.4666553 -3.5458322 3.5924087 -0.098420255
attacker -5.978075 0.40196922 0.23422338 0.39597535 3.9242325 -2.23132 3.3260648 3.0641105 -0.7608236 -2.4453533 -0.5275418 -2.4614959 -1.3759736 0.44892585 -0.94481313 3.328631 -0.77213556 6.641913 1.8414118 -2.696196 4.9831705 -0.828134 -1.270749 0.04703602 5.9481106 1.8975451 3.0037441 -1.6966486 1.5778428 3.9357164 0.27723908 -1.2007842 -5.648323 -3.9899914 -2.1140735 0.1436763 1.0849996 -8.635014 2.6120903 1.477305 -2.4811954 2.264981 0.5391317 3.7752273 -1.7294947 -5.683333 -1.0793532 -5.6004796 5.0855627 0.78700995
data -2.1322522 -1.7031227 1.1442866 2.7712097 -0.39423403 2.13466 2.6822634 -3.6329944 0.5937609 1.2322891 -1.2441953 3.9334607 -3.091844 -5.681357 -2.5924587 2.0095744 1.8260094 3.0414965 -0.98264307 0.5637757 -3.9001095 -1.3950522 -1.8044446 2.598618 3.4637067 -0.048275802 5.7125945 3.824744 1.7945204 0.27728993 0.5776192 1.8051881 -4.8387175 -3.7668009 -5.8966556 -0.24970856 -0.7402416 1.1996114 4.3611264 -1.1614016 0.7270254 -1.3098035 3.575787 0.77614874 -2.4433823 1.6940851 -1.55881 -1.792349 4.414991 -1.2026275
service 0.914737 4.5802116 -2.095872 3.8551543 4.3107796 3.3351502 -4.3360295 2.5125728 2.3388894 2.9926934 -1.6758953 0.1339753 -2.1828885 2.049433 0.77282375 -0.7127912 4.9671235 -0.2949992 -1.8195766 -3.482797 -2.8839002 4.369189 1.3879473 0.1706096 1.7243989 -3.0359168 1.0577868 -0.280482 -3.3341632 -4.7253695 4.998921 2.0230076 3.3189778 -2.7492132 0.36105964 1.9809886 -3.37184 -3.796891 -0.9768487 -2.4405706 -1.2626764 -0.7944937 -0.87175345 -0.85426116 0.36852846 -7.360224 1.9010681 1.9810256 -0.36356616 0.60154027
network 0.7527575 -0.51123255 -0.7621035 -2.8764815 -1.2036412 3.5023408 0.91639245 -0.53882664 -0.8166273 4.9398484 -2.2037838 2.7628696 -2.8749342 -1.9108464 -2.0915055 -0.7133194 3.4827435 -0.7209858 -0.43981567 1.7524683 -5.6708884 5.2035007 0.9172345 -2.853948 -2.3720267 -6.1861525 0.09501957 0.005014941 0.85632706 -2.4827013 1.2836093 3.9321225 -0.5789212 -1.5620905 3.6798215 -2.4211314 1.0309687 -5.1127157 2.1570942 2.00187 0.47130364 1.8907944 2.1925278 0.7283483 1.2940564 0.41077796 -6.0869875 4.1913815 -0.88381547 1.5125285
software -2.5713775 -1.6739446 1.6060297 1.1360688 5.9093695 2.0769544 -3.7043862 -1.5793387 3.7501194 1.4218936 -0.04134424 -2.4700153 -1.9769065 -0.91465086 -0.760532 -0.58086956 1.4047545 3.0598955 -1.352826 1.7631418 -0.46522355 -1.7823833 -0.39211378 -0.40454894 -4.0653763 -4.440422 -2.7207844 -2.4502354 0.68154484 -2.368722 -3.280602 -6.8684306 -0.36753696 1.3488579 4.6882777 1.2427452 -3.107624 -3.2789984 1.6536943 -3.0059156 1.41109 -4.0693164 2.1382961 -4.1416326 -0.7570219 -3.8836358 -1.8632979 -2.0818498 -3.8333948 0.8099112
execute 2.1645513 -1.2858033 1.2324903 -4.1815014 -0.25948423 -0.005967285 0.837536 4.9158726 -0.35393512 0.18741418 -3.5305207 1.8917174 0.9219937 0.6183946 6.028079 0.16589007 4.308416 -1.5070201 -0.7370643 1.1160578 0.50902313 1.8965068 0.53681856 2.0619075 -0.9237762 -0.33359745 0.001744244 -1.1425657 -1.8373622 0.85529876 2.4223204 -1.9748288 -2.812908 -3.2091548 2.3670032 -3.3745632 -7.668523 2.5452812 -4.2215858 -1.7756795 -2.9361157 1.2678386 -3.4533403 3.5436907 1.3220066 -4.45766 -2.7094257 -5.7924566 -5.2548127 3.3913035
process 1.1613959 1.7227795 0.21009183 3.0277014 6.724083 0.5043033 -1.9684671 -1.2514485 2.2730825 -1.8592634 1.4562544 -3.2124274 -4.2919407 -5.880887 0.3680471 0.4942886 3.0148575 -3.6239612 -0.16932894 -1.6585993 1.4923726 -0.73040664 0.64792144 6.64156 0.072784595 -2.14542 -3.7406218 0.9248781 -1.1824821 4.113131 -1.9660976 -3.2567706 -7.2005434 -0.62339616 2.096802 1.427697 3.659969 4.071894 2.4015625 -0.51281637 -0.7333411 -0.7136181 0.7190498 0.6161396 2.0766964 -5.0737166 -0.60484844 -2.5792031 -1.2347071 2.1548615
code 0.16750787 -0.059654042 5.748572 0.70990777 1.6793307 3.916703 1.2693427 0.44268942 -0.070503145 -2.336285 -0.5045041 -1.924851 -0.34008875 -0.80036855 0.37194407 3.3399613 -4.046287 -2.3125408 -2.3015 2.634626 -3.759098 -2.898053 -2.1840923 4.064928 2.581829 -3.3058636 2.1017463 -1.1197174 7.04067 4.8449597 -1.5107802 -2.524443 -5.022057 0.6518645 0.7175738 1.1275828 -4.269964 -0.72964567 -2.7124643 -1.3992432 1.9273864 -5.1775546 3.0667338 -0.060829263 1.273955 -6.7925887 -1.833657 -4.8634744 -3.975146 -0.022660432
malware 0.12259268 0.5263632 5.301323 0.79199165 -1.0064275 4.6980805 2.9402952 -2.8700423 -0.8017846 1.4594378 -1.0961716 1.147407 6.910277 -4.1834335 1.1552217 1.1395339 -1.057755 4.0628233 -6.541874 3.6896324 1.2512934 -0.33809575 0.59269625 -0.35854995 -1.1004776 -7.536225 -1.8761921 -0.2490391 2.2794573 -0.1515491 -4.1821804 3.9416924 3.6905894 3.6237478 -0.78526604 -5.132305 -4.473802 3.0667768 -0.32796434 0.9372309 -1.4369861 1.2117609 -7.3190503 2.0518703 4.3046813 0.44577202 -5.6036954 0.55427134 -0.05562992 -3.4565766
adversary_may -0.32953346 -0.9495719 -0.8221333 -1.281728 -0.8613717 -2.1697125 -0.65053344 -4.8792353 -2.9184864 6.2216587 -2.2401786 4.1828594 3.9851801 -3.611012 0.5263617 3.2281718 0.71278477 3.4811113 1.0817598 3.2015483 1.1260409 4.271384 2.6874866 2.6456037 4.603191 -7.9969897 0.6208845 3.2809002 -3.361932 -0.9398958 5.444345 0.59127617 3.1100397 0.24420378 2.721657 5.264476 4.34829 -2.1144166 0.47309572 3.797781 -3.5861852 -6.5168633 0.58009636 3.8839412 -0.6401751 -5.1357026 -6.351467 -0.0074163107 1.0832267 1.0888332
malicious -2.5843892 3.9554584 -0.5335105 -0.7491242 1.8476778 0.17196672 -1.2541904 5.546429 -3.697308 -1.4826012 -1.5451651 -4.901479 -0.882789 -3.5015693 2.7808104 1.8461713 3.2428317 7.057852 -4.3653555 1.9985749 -2.8850079 -1.1266459 3.5099661 -1.0226841 6.172476 -0.029817635 -4.317642 -0.019873194 2.03568 -2.4533901 -4.2859287 -1.9278725 0.16476136 -0.7717343 1.4948686 -2.4295046 -4.0378737 2.400536 0.38494852 1.3765615 -0.42127123 -4.0404134 -2.6428 -0.23941265 -0.24010302 -1.2849956 -1.8408098 -0.34780884 -0.008992875 0.21540724
technique -1.8269305 -3.583302 6.1362166 2.544205 -2.2892606 2.9804296 -2.7956872 -5.6460023 -3.9980836 0.1717641 2.9783485 0.48112142 -0.76274574 -3.3532574 4.8817215 0.77030826 -1.1288677 -1.9743568 0.5918863 2.3365645 -4.1709256 2.2895837 1.7017597 -0.7883495 3.208933 -4.0005183 1.8749956 -2.904041 -2.1122584 2.418186 0.6204756 -0.35495028 1.3847369 0.45644814 -3.7037115 -0.8849269 -0.5535939 -2.010394 -0.1510861 3.8976161 2.5990117 -4.401045 -1.3952506 0.7900079 -0.9467345 -1.4743292 -1.4363142 -0.87044084 -0.7137777 3.4457362
include 0.5430743 -0.43134212 1.7254448 0.55755883 1.5932907 1.089983 -1.9475467 -1.1116848 -0.8239355 4.800591 0.7863552 -2.4091487 2.7942953 1.6157832 1.330892 1.306803 2.949879 0.71089196 0.4125971 -0.11620211 0.8869161 2.5672655 1.2380457 -0.70782113 -1.1905565 0.9054374 -1.1367866 -1.8969269 -2.313358 -0.36172727 2.1613264 -0.10164313 2.210081 -3.086396 1.7298813 -2.8377357 1.7606748 1.2820766 2.0464725 2.0964084 -1.388117 -0.49744362 1.7478056 -1.1236186 -1.9659204 0.5621278 0.8140774 -6.1022077 1.6020677 -0.041363142
tool -3.2921324 0.5588292 -0.4671783 3.6655178 -4.091572 5.605861 1.0869945 -0.71482414 -3.2692227 2.581164 -4.7339582 2.2976491 -1.933359 -3.0902655 4.7124953 -6.8215647 2.7960606 -3.2514353 3.031191 1.8039358 -0.35773414 -4.6849866 -1.6998441 -0.65303224 -0.7665016 -3.6084654 3.546685 -2.566034 1.0144907 2.3311925 5.1786056 -5.13691 0.8746065 6.178385 5.054492 -1.3223568 0.6728077 3.043642 1.6735462 -2.5173724 -4.2065578 -1.8230407 -0.60004187 -2.003805 -6.3038144 -2.3667393 -4.3449035 3.3446424 0.21440367 -3.4469914
server -2.2829497 2.306284 -2.32539 -1.9846251 8.240618 -0.4750954 2.8343608 -0.12936233 -1.1773105 3.747062 -2.1933784 1.57496 -0.76201856 1.526391 0.5859024 1.1649995 3.0529819 -1.4084877 0.12210938 -4.68054 -4.6603227 -3.0495546 -0.27122325 2.154363 -1.4628154 2.446825 5.3067846 0.81705344 -1.1498113 -2.0719645 -1.6653587 2.330341 -4.429784 0.66573036 5.757064 -0.7303663 0.9007144 -5.636376 -0.046416506 -1.0409404 0.24768639 -2.7730253 -1.4050962 0.4387058 -4.1691604 0.63824856 3.5330272 -4.1800494 -0.76202506 -2.4334354
allow -0.5083612 6.6285543 2.851861 -5.171182 -2.7799318 -0.89865595 -1.3219064 -0.4511037 -0.08473695 0.38773558 -2.04303 1.6570104 1.7161088 -0.22196601 1.668556 1.3842679 0.5442502 -3.2709363 -0.42274225 -5.338759 -3.4174135 -0.50064784 0.87254405 -1.9486679 -2.6332512 -2.8680367 0.3692145 -1.8016343 1.6974802 2.5325954 -2.6153636 -1.426429 -1.6398388 -0.7205313 1.5189223 -4.3819623 -1.8931464 -1.712248 -0.12455851 -3.684983 2.3862598 2.413198 2.7042773 2.5793467 -3.728632 -0.9082632 -0.72075653 -0.40045318 -1.0506945 3.733655
security -1.3379864 2.5990355 -1.1238579 3.2974358 2.7177668 0.46995252 -0.7777055 -1.2594783 -0.3080844 -0.42078805 -2.0538466 -0.9251072 -5.4708557 -3.0972571 -2.8127487 1.324975 2.6035497 -3.6978178 4.7359457 -1.2309217 -2.6028683 -1.8554475 0.6845982 -0.25632828 -0.03516008 1.1368394 -2.0886831 -3.2143965 -5.8837314 -0.38451266 -0.3004912 -4.341931 -3.6694613 4.0229063 -0.80268836 -2.7887914 -1.4558306 -1.8770661 1.7053102 5.16123 -1.0990916 1.7175417 3.6909537 -2.479725 -5.4891233 -1.3393291 -1.132483 0.86410767 -3.3920803 -3.0451176
content -5.417535 -2.5804238 1.95163 -1.1223491 0.8357372 0.317984 -0.3298137 1.8709747 -4.567611 6.3493752 2.3255353 3.0715942 -4.4591365 0.09309544 -2.086729 3.1056526 2.1038303 5.917294 -0.8167983 1.843927 -2.635089 -3.6424894 -2.2375786 1.6499088 1.1367036 -3.288402 6.3851933 0.58186513 2.7208524 -0.84319323 -3.2638159 1.6614074 -1.4048874 -8.309688 0.75942826 -6.6382823 -3.1884656 -1.216034 0.14801027 2.0371172 -4.4438496 -5.437613 -1.8550974 -3.081868 0.7686312 -0.32321143 3.146958 -0.03185683 -2.6696982 2.92135
device 1.5440824 1.7009431 0.24329183 -2.1676052 -2.077732 2.7434335 0.37597018 5.2416787 4.688894 0.32555667 -7.1687903 -0.15866669 0.25442904 -2.7929986 -4.5775576 1.671352 -2.7813113 0.33473364 1.1633284 -2.2319288 -5.391118 4.546163 5.0413127 -7.7616224 1.0363415 1.3375347 3.4934099 1.942355 1.9898206 -1.7156869 -4.7267857 2.3766725 1.254261 2.4000428 -4.4316206 -0.5019997 -2.902288 -5.409182 4.528313 2.7036366 4.927687 -2.1790388 -0.71364534 4.353757 0.7378656 -1.7774073 -2.33445 -2.2328186 -5.062676 1.7074234
resource 3.7365334 2.8871365 -5.634876 -1.4180925 8.86483 0.716579 1.4300079 -0.039456602 2.8166027 -1.3100067 1.7343057 6.6024756 -3.5809214 4.0324354 -2.632257 0.7518128 -1.8073479 6.602502 -3.7241776 -1.8596672 -3.7272208 0.13453263 0.9909668 -2.1161392 -3.283519 -3.7438383 2.60255 3.4377062 0.822239 3.151416 2.357432 4.1420264 -2.3638942 -1.0763541 2.7991424 -4.8244143 4.110972 -4.9317994 0.9025467 -6.4299855 -1.0259393 -1.4717685 -0.48434356 0.9034983 1.9905179 -5.409239 -2.5186706 2.612983 2.0973046 3.3542452
perform 1.2053245 -2.398852 4.458744 0.35887668 -2.397861 -2.2470965 -0.7951439 -1.0625068 0.23346277 0.7666284 -0.14963847 0.39123294 1.6127526 -3.7074986 0.43487662 1.4534774 1.3774232 0.24534014 1.2154511 -1.6508735 -0.32462677 3.959613 -3.902137 1.2653127 -1.4770141 1.7872663 -0.18003912 1.5729184 -2.2489913 -1.102739 3.6046262 -3.7135918 1.99328 -4.1453357 2.023395 -5.9423285 -0.8032307 -0.65230805 0.409307 2.664678 -0.99697447 0.43033344 0.6619978 -2.0991526 -2.3375692 -1.7693843 -0.38817018 -3.0001755 2.1007695 9.330512
credential -2.877696 3.192048 1.77666 -0.83374226 2.2438326 1.9561783 -6.1538444 -2.625398 2.208886 -4.6752777 -0.56453943 1.8930864 -2.8434215 -2.6723192 -0.6411544 0.6388843 0.14331849 0.28432536 0.8679659 1.7530437 1.0432497 -3.8952553 -1.9960985 -3.719054 3.9247227 -5.115055 2.603896 -0.3629911 -9.441461 1.6669883 2.8624763 1.8710604 0.34528047 -2.7080832 1.3886782 -0.7514992 -3.6620286 -3.984839 -3.5276122 -2.0996225 2.576011 -1.6056075 0.43828726 -0.6021297 -3.008456 2.8466058 -1.2342589 -5.4028826 -0.98246264 -1.5627612
also 1.6824131 2.5017955 0.11285525 3.0709693 -1.284223 0.43221354 -0.56297225 -1.2243552 -1.3521283 -1.6309642 -2.7377377 -0.7295305 0.4359 -5.023289 4.776102 0.31186733 3.6856694 2.6005697 -0.4559164 1.8494272 0.008494375 0.2778833 -1.2919751 -0.69044495 -0.9653308 -2.0166929 0.94555146 -3.1429138 -2.70183 0.23992968 2.2614474 -0.4438603 0.039002325 1.7843763 0.48569992 0.3038736 -5.852869 0.82249296 -0.35672504 1.6061945 -2.663621 1.9247519 -1.2729623 -2.9739306 3.0050452 0.6775316 -1.5130832 -1.4512874 2.5189018 0.11249137
group 4.851365 4.389069 -2.2472477 4.0042987 0.5957451 2.300634 -2.5011723 -9.801827 3.4945679 2.2082222 -0.08278638 -2.796797 -2.2245314 0.61413884 0.51014864 -4.4013824 0.9266664 -4.854988 2.2367055 -0.43935037 5.4812965 -5.045604 8.498137 -5.9203434 -2.1373506 -1.3012792 -2.4098752 -1.4785129 -1.5548189 -1.5057088 0.78085786 10.402818 3.0118015 -3.6384652 -2.2735538 -3.873042 -1.8067554 -0.022338422 -4.4236627 3.7598238 -8.593775 1.8808675 -4.1327834 5.6125445 -0.87045085 -0.66817456 -0.66141945 1.7147475 2.4111385 1.5270494
program -0.33773166 -1.4191846 -1.8391871 0.63905007 1.3830761 -3.0597332 -0.33033153 3.713488 3.4679973 1.2041328 -1.026357 -0.7356762 0.28589445 4.243134 3.3879085 2.2751853 1.5969794 -3.0271523 1.2911147 1.4289165 0.84364796 -0.8473059 -3.7996628 1.9307404 3.1007872 -4.6758866 -1.1479827 0.24966161 -1.241683 1.0905613 -0.47355935 -1.7127675 -1.3571498 -2.6695259 -1.9417583 2.5139549 -2.8925936 0.79536253 4.0728235 -3.8963044 -0.10036315 0.87865925 -7.4062777 -1.7232621 0.22297096 -6.394324 -5.1389937 -0.516325 -1.9616501 6.292989
window -0.23749986 1.1297446 0.32706988 -0.022683749 -1.0642871 3.0035713 -3.4403439 1.1609398 4.678485 2.1866724 -2.2774358 -1.8939159 0.35826156 4.6764545 -1.2071044 3.3083994 0.41985002 -3.3010955 0.72373205 -1.2422713 -0.87510395 -3.168877 1.0903969 1.5567198 0.6498952 -1.9453703 1.4368372 -2.531863 -6.061088 0.23977068 4.2056847 -0.42162597 -1.9865072 2.8971524 1.5995809 -1.6050656 -1.6319215 4.355257 4.9481072 -3.823145 -1.4229091 -0.5093449 -1.0669982 -3.969843 1.8883424 0.6598267 -5.129778 -1.2213788 0.55839187 1.8236623
example -0.3452649 -0.9617464 1.6137978 1.8789427 1.5891011 0.18814068 0.4038234 -0.9836669 -1.863537 2.8650486 0.44124213 -1.0916679 1.0502286 5.0338707 1.6624397 -2.4659784 -0.38554975 1.1509452 1.3080963 -2.7721827 0.8850058 0.27191302 2.6981463 -1.7011592 1.724228 -2.2073472 1.6211194 -1.8655245 0.23430875 -1.1281868 -0.18984488 -2.4960506 -2.4537895 -1.9203187 0.5326272 -2.5149143 -2.7675397 1.3416551 2.658131 -0.6444921 -0.8921218 -0.43167755 -3.3803 -1.8158184 -3.932258 1.141477 -0.25962725 -5.6313157 2.9642649 -2.076414
account -0.22086008 6.461761 2.1197283 1.0008471 0.76305175 2.0365655 -5.9242625 -2.8923259 3.4694493 -1.5714353 2.9452426 -0.29930612 -3.5889847 -4.6471243 3.364556 -3.2084 -1.0277581 -2.5281625 2.084218 0.29712504 0.45566696 -3.9413435 1.2543396 -3.5327573 0.09990877 -3.1565568 -2.4962213 2.529997 -5.8334064 -0.6017586 4.124434 3.1935863 0.6930125 -1.6636113 0.49356538 -3.3113048 -2.4149349 -4.462078 -0.41040114 1.4697636 0.13093351 2.3750753 1.1793984 -0.9747572 3.6468732 0.5153018 -2.0362475 -1.7189536 -2.368209 0.64771754
mitigation 0.100381754 2.0978205 1.4026302 -0.34283528 -6.600689 -2.1548371 -4.092935 -2.3754427 -3.253985 -3.4864292 5.821952 -0.26673764 0.3206086 1.0931154 2.4975889 -5.4868307 -0.3259448 -0.83309156 -0.525961 0.7194429 -3.5331948 3.7178934 0.92269295 -1.3812985 0.7049389 -2.8090172 0.13363387 -0.48524556 -2.9615617 -2.1712086 -0.38488284 -4.200942 -2.253648 2.7014472 -0.8362562 -1.9387008 1.8710423 -0.6847589 3.427762 -1.5221913 -2.001806 1.5717541 -1.5587479 -4.2579103 2.498983 -1.7456311 -2.8114228 -0.8025909 -2.560499 -0.030331632
request 0.07734529 5.814976 -4.728221 -2.2048743 6.655844 -0.42132318 7.524866 -0.5472024 -1.3727335 -3.1514919 0.70023465 1.6050427 -3.9768546 1.6196915 0.71519804 -0.2792054 1.3372589 5.3204026 1.8371947 -1.5799596 -3.4161375 0.7937773 1.5722953 0.7064731 4.5253015 2.2780685 0.44377062 -0.010693852 -2.2226446 2.3706312 -2.3012438 2.5701766 -3.2095442 -1.9638385 1.5606679 -3.2722406 -0.7947436 -5.3132997 -4.754746 -4.5628505 -0.81533104 1.9513649 -0.020441981 1.7142314 -1.4940283 -2.868361 4.147231 0.14843464 2.546361 0.99167925
prevent 0.24235447 4.7713227 1.0684508 -0.49200267 -0.66900414 -2.064845 -2.8230615 0.08392014 -0.680848 -5.3117213 4.1718287 2.3993027 -1.7078232 -2.2480357 0.06437254 -1.4306048 3.8647847 3.3961098 2.8067975 -1.3564293 -3.435521 0.6866957 3.0979877 -2.0355024 0.7430175 -3.419913 -0.64945287 2.2452915 -3.7184894 -2.13637 -1.9964402 -4.7578897 -1.3489503 4.262866 -0.17136791 1.4962434 -0.9733517 2.216099 -0.7969582 -3.6657777 3.1860497 -0.90807855 2.9451272 -1.3942327 -2.0929375 -1.6779013 3.14433 -1.7741065 -6.165025 2.7909303
exploit -0.5789854 -1.4378011 -0.15468764 0.009206309 5.0730176 1.5989777 -2.3713236 1.0347174 -0.60971236 -1.2756596 3.4805155 -2.4450517 -1.3093507 -0.42231667 -2.0966313 1.703118 -2.6465645 3.7970107 -1.246422 1.5839285 -1.6282532 -0.2717813 -3.7164993 -3.9567258 -0.27589002 0.24704668 -2.3456502 -1.9610207 5.30745 1.6142689 0.44601968 -1.6730164 -1.2851375 -0.19130065 1.341312 -1.966972 -2.2722583 -2.2519996 3.3002234 3.5127714 -0.12863812 0.41812882 1.3499943 4.935904 -3.4834354 -0.2584436 -2.4843638 -4.5867968 -1.5784259 0.58750343
command -1.4151434 -1.4495118 2.5209649 -3.8660562 -0.37565345 0.33519894 0.14900161 -1.327527 1.8848318 -2.3213127 -2.6785634 -0.72891486 1.9433059 2.6855052 0.38028073 -1.1265739 2.8584874 -0.28764328 -3.1420557 1.2671613 0.3338897 -1.1984019 -0.6408567 0.8859475 1.3723303 -4.5777097 3.0781147 -5.879927 1.874768 0.51947093 3.1690419 1.6977961 -2.3815632 -2.666004 -2.9872174 -2.9512303 -3.0068645 5.8086367 5.1797867 -2.4712338 -1.4604117 0.5058818 -5.3721356 -1.173348 -0.08524986 -1.8143582 6.8223886 -3.7661247 4.2482815 2.4576447
could 4.1223946 -0.21969101 0.41935596 -0.6735271 -0.7178978 0.5205791 -1.2317598 -1.1971555 2.6498103 1.2433015 -2.105802 1.0150954 -0.31856707 -1.3501004 -2.4853237 -1.0052818 2.9376156 2.9559257 0.62677425 0.13425547 -1.9332985 2.6200907 -0.95402056 -6.181868 6.1846366 -2.582709 2.9156108 2.0517411 3.888094 3.1003094 -1.8990475 -0.7560102 -2.2310135 1.5037678 0.61736345 1.9274142 -3.774558 -2.6330907 3.3227742 2.2634678 2.3728018 -1.8216561 0.4311751 2.755101 -3.9436 -0.12949428 -0.19855744 -0.099461235 -3.8411157 1.2018085
create 3.4708517 3.3180103 0.3388366 1.5585276 0.59919614 -1.346954 -1.3530613 -1.3739439 1.4346217 -0.33462283 1.7792331 1.0947224 -0.48512623 -1.537791 4.117364 3.6768725 1.1839443 0.78801364 1.9569472 0.7248588 -0.019867288 -1.2783351 -0.0036309266 0.48557475 -1.4286755 -1.7829776 0.556885 3.4267423 -0.25208458 2.456999 0.4433741 3.1436548 0.22173646 -0.85626704 1.4926196 -3.326515 -1.4117514 1.5833052 -2.3679361 0.20664127 -2.7285535 2.45595 -0.68968725 -0.20759974 1.7369096 -2.670911 -0.5617579 -3.383207 1.4661065 0.6673997
within -1.4812018 -1.7162869 3.2933903 2.4161859 0.038738452 -1.562353 -2.3881452 -1.7076999 -1.2053725 4.1131454 0.62359226 -0.2325876 0.7158817 4.9790726 -2.261235 2.762567 2.7569287 -1.3741503 2.28117 0.62697953 -1.0810115 3.934665 1.3231533 0.43789822 -0.29238778 -2.5950587 1.5058591 -1.5507491 1.0374486 3.466077 -0.15384969 0.31117392 0.5251139 -2.8968735 0.7625584 -3.6229217 0.92781466 -1.721683 -3.1036775 0.14001708 0.88977516 2.450588 2.553147 -2.5674765 0.7627262 0.84220064 -2.7238963 -4.2546644 -5.473072 4.704289
require -1.0724093 0.79501545 2.115814 -2.488556 1.4328371 -1.6571673 -0.33672428 2.0193465 -2.4776783 -1.5271162 1.9432033 0.38816902 0.4319916 -1.1403975 0.3987985 0.20996588 -4.225194 -1.5040667 1.9283427 -2.0206246 -3.7405581 1.0927387 0.35167402 0.56335646 0.70277053 0.19372056 -1.9787617 1.9264327 -2.7316697 1.0880188 -0.47466522 -1.0173787 2.0520277 -2.46873 1.6688368 -4.2778916 0.028927002 -2.4491396 1.1021405 3.5744395 0.94575584 1.8551319 -0.028093653 0.2726275 2.2012646 -2.6080496 -0.2343946 -2.6122334 -0.39609995 0.97832084
message -3.1334355 5.0301623 6.0859494 0.08650573 3.0967617 -1.9294032 0.69503117 2.1471753 -1.39262 3.3327956 6.003112 1.3816631 -4.12505 1.7849184 -2.7813141 3.5173323 -0.075895794 0.57486206 0.0783188 -1.9565564 0.130732 5.7882304 -0.97402316 -0.4266432 4.38852 2.603626 3.4531407 -0.8412451 -1.2353947 2.532084 -5.2632017 5.5018325 2.8064396 -4.646106 1.0385036 -1.1483954 -5.729559 -5.035717 -4.7379704 0.37269545 -1.9633421 -4.0881934 2.0032182 -3.5620773 -0.7375527 0.70251584 0.67468184 -0.70466256 4.0891757 0.83920616
execution 1.9207342 -3.5007627 0.14240842 0.21887952 -3.8077223 2.983823 -1.052128 3.488909 -1.4827646 -0.57675093 -1.02612 0.28578818 -0.8039986 -1.2383884 1.1989847 -1.8243383 2.7961373 -1.1811283 -1.5807726 2.3084857 -4.4612856 1.152246 4.5592613 2.4187827 0.88415766 -1.8666856 -1.9085699 1.3259315 1.2964233 2.7890022 1.3916639 -1.2117207 -1.4672729 -1.1189853 2.344933 -3.5625024 -0.7483715 2.694177 0.975714 -4.78791 -2.7892196 -0.64126456 3.3546789 6.455381 1.0955272 -5.4781513 0.0399351 -3.3831267 -6.311794 3.9482632
protocol -3.8954382 -3.1689796 2.6875021 2.2483575 0.4138287 2.737419 -0.47048643 -6.660825 0.17462887 5.9171977 1.7596067 6.7831287 0.13902427 2.4608772 -4.6868286 0.19796178 4.6289487 -1.3904572 -3.519952 0.8021406 -3.3741868 3.624268 -3.299274 1.8222735 3.451052 -0.44173932 2.132782 -4.23486 0.85172045 -2.2907488 4.3813615 2.0493336 1.4998982 0.2266319 1.9655206 -3.4815392 0.60124207 -5.420318 -0.8415575 -0.36982954 2.1180897 -1.336048 -2.8129961 -1.6095437 -0.2044152 -3.2975547 -0.28899598 -0.06349753 5.036554 -0.75123215
specific 2.4314654 0.42565387 5.342556 0.47790548 0.915193 0.66419333 0.042302836 -3.6566129 0.7141421 0.6080311 2.2537 1.9841723 1.7938151 2.043214 0.772546 -4.613067 -0.76272243 1.8164558 -1.6519139 -1.7702358 -4.6698074 3.0439599 3.3788722 -2.515913 -3.0100052 -6.2511725 -0.14631619 -0.27667925 0.09364646 0.61750996 -2.9075255 0.43660104 -0.31776625 -0.06996465 -1.982154 -4.3150253 -2.3742404 1.3881369 -0.34122935 -2.0085604 1.6344326 2.3037345 -5.752317 1.5622925 1.7308409 -2.422647 0.5712197 -2.834183 0.6578072 -0.13692273
password 0.64456284 1.3118752 -5.564243 -5.848773 0.12733863 -2.2002041 -2.9472497 -1.2623123 5.318299 -2.254482 2.2144496 2.874365 -2.6884823 -4.9738173 2.8452115 0.10648006 -4.9666963 -1.1461561 4.396195 2.047202 0.2138541 -2.2328937 -2.5700166 -2.8743556 2.8206663 -0.5191024 3.2940428 -0.8990767 -8.567328 -0.9821478 4.874657 3.5166268 2.5835078 -2.3440735 -4.530278 -2.6178296 -3.9135084 -1.3328426 3.0799415 0.7491276 2.005448 2.8894565 -0.7783244 -0.47543916 1.3642595 2.7961843 -1.6746532 -3.9828925 -1.1972777 0.61235183
control -1.1720092 -1.2622429 -0.12899943 -2.3532033 1.8247318 -0.12498155 -0.43931043 1.0521467 -1.9656056 -2.02081 -0.6257507 1.1686021 -0.5783855 -2.5594432 3.565762 -0.2279747 4.803828 1.4253855 -1.4497938 -2.6612678 -1.2347207 1.1510309 0.98482114 1.6592321 -1.3511384 2.6491315 -0.07720831 -1.2036549 1.5477691 4.4496837 1.6897308 -0.032275233 -1.0486572 -2.1913524 1.4465822 -4.6061087 -4.8524256 -2.4213822 -0.63868254 1.3114115 -2.9421606 -1.6025801 3.889362 0.7941301 -2.596632 -2.8682067 0.25212756 0.9770625 0.44962648 5.70824
provide 1.0866401 2.1511588 -1.4175618 0.13016497 0.42119524 -1.9475529 -1.1945393 0.46033216 1.9057943 1.3210242 -1.7833327 0.76466405 0.9318213 2.1027622 -0.1575687 -2.1111226 -0.60488176 -0.4934571 -0.6837561 -3.360262 0.30029055 2.4445696 -2.568848 0.4748447 -0.24449916 1.874525 2.05134 1.3265003 -1.9103931 1.2714354 -1.8349303 1.5038446 -0.034897238 0.1279643 -1.6204225 -2.493966 -1.1079047 -2.146016 -0.045437768 -0.99895924 0.42169842 2.7749825 1.2799038 0.24069715 -4.632323 -1.488396 -0.84506553 -1.5143852 -0.444979 0.29274622
remote -2.9222634 1.5468086 3.2910876 -2.7628467 2.4546256 0.2696378 -1.5864358 0.83519053 -1.5487362 4.9230304 -1.4907724 -0.7031025 0.2320658 -0.07223567 1.667705 0.64392406 4.6854715 -1.2543961 1.2855856 -0.96096593 -0.7401305 -2.025951 1.2585762 -0.97753066 0.47625217 -2.633421 -1.4714671 -5.183552 -0.42022318 0.9505455 6.070016 4.094582 -1.2890314 -2.4591837 6.5914407 -3.9071085 2.0668442 -1.5137327 1.9471885 -2.1048412 -1.6999369 -3.651918 0.749673 1.8655334 0.19236596 2.3729866 -0.4194596 0.32313147 -0.74308777 3.5644984
via -1.412789 0.08813034 -0.70167404 -0.4212054 -2.2419384 1.7050908 -3.23179 2.4523914 -1.6659442 0.39470524 -1.9991584 -1.0319825 2.04945 2.0494606 0.15201393 -0.38417622 1.5992529 3.339738 -2.0664809 1.3636869 -0.47057036 2.44228 -1.8633591 0.18244575 2.9403722 -0.93204445 1.7103248 -1.6237041 1.2174325 -5.12588 0.57269007 4.4019756 -1.2960943 -3.2992897 -0.8698255 2.6295803 -0.7808324 0.4086752 -0.5007739 -3.8277214 2.5858023 1.0912879 -2.3286011 -1.1028749 -1.1084459 0.37626004 2.182173 -5.9660754 -1.2963524 -0.61461425
method -0.6594278 -0.22144315 3.4081118 3.495638 -2.6968844 1.1622856 2.239587 -2.4237509 0.08032428 1.2869627 -0.46029615 -0.31775048 -0.70518166 -0.7851263 4.0983663 -0.13756527 -0.68278825 -0.26417157 -1.7079962 0.9206437 -1.5507463 -1.3244377 -0.59912616 -0.67178273 -0.15470088 -0.68378735 0.47435907 -4.442326 -3.709458 -1.5346737 0.3372507 -2.1776185 -3.210578 1.5927924 -0.52689207 -1.9996672 0.5083056 -4.9018517 1.4555321 1.6195679 1.3121808 -1.6576071 -0.44758385 -2.6234198 -2.90394 -4.055915 1.9095832 -4.538545 1.2054199 2.4620607
one 1.2376655 -0.5849056 0.2680338 -1.3030078 0.6681173 0.34905642 5.961541 -2.853213 1.5983827 1.3963283 0.31358793 -0.5634939 -0.8905989 1.9424886 5.0219703 2.6104176 -1.1575758 3.1152651 1.265528 -1.5023499 -1.9059963 -0.42117098 2.0529656 -1.9672803 2.8595967 3.2912064 0.8231412 0.27989852 0.805373 0.30969384 -1.8434691 0.552989 -0.4479052 -3.809476 -3.1377077 -0.31692016 -0.36118713 -1.705134 -0.69144076 -0.5598045 0.8003983 2.7866347 -2.352715 -0.049710482 -0.47410035 -1.8915513 -2.255721 1.5125594 1.4386178 2.14903
block 0.119587146 0.62196624 1.5807247 -1.7569537 -0.61011934 -1.5916221 -1.1282243 0.9171516 -4.0058484 2.2523222 0.42417 4.0140967 -4.4189086 -0.88815445 -3.3152118 -2.0518696 4.78244 0.07734717 3.9736907 4.5554132 -5.311838 -1.2831299 0.4580623 -1.7971733 -1.1763335 -3.415709 -0.45569208 0.3025851 -1.3483826 -2.7278516 -0.156413 -3.8620682 0.15338188 2.028794 1.3830076 -0.073991805 -0.7994784 -1.961078 -1.3684975 -3.3587234 0.5640665 1.9795682 3.2455776 -0.546626 -1.603499 -3.70472 0.6088659 1.0385495 -0.9353033 2.035145
citation:_microsoft 1.7646897 6.8523235 -6.354382 3.6645002 -3.3889716 0.22779134 -3.3494108 1.7007799 0.31909746 -0.42655125 -3.809654 4.187586 -1.6449443 3.088427 0.6207905 2.1227841 0.6393946 -4.556225 2.205932 -0.5609045 0.14746612 -2.1595337 1.5225279 4.952637 -0.9813574 1.434768 -0.3622381 2.7688005 -3.0412495 -2.8861444 2.117209 0.5456566 -1.1117482 2.1799054 4.386991 1.4202541 -4.122898 6.2627435 1.8635681 -3.6451159 -3.5076952 3.962634 2.9535174 -5.07852 3.308376 -2.8828056 -1.9680341 -0.59101677 0.084324725 2.3941228
compromise 0.4735895 1.1000067 1.6923012 0.49675202 1.4613048 -2.2214403 -1.748661 -1.1089231 1.5868018 -3.169944 -0.93464917 2.5714304 -1.6649356 -0.36034155 -0.7597061 -1.8306221 -0.5435994 1.6654605 -5.6338806 -2.4572039 -0.38287592 2.1831715 -2.0084305 -1.045298 0.016630849 -0.7113246 -2.5420516 -1.3837261 -0.592262 1.1314573 -1.5562829 2.81808 2.0678754 -1.0736612 0.94027686 -1.8233669 3.1678104 -0.42155975 1.564871 -0.050458807 -1.7293956 -0.54372096 0.419681 1.9876782 -4.6957917 3.8380165 -3.0634534 0.8602859 -5.516837 -0.36010772
run 1.6500088 1.1251317 4.8773685 1.2240055 3.6507447 -0.8299613 -3.3633466 2.9674876 3.6542532 1.5315133 -1.808763 -2.8259199 -0.16371575 0.3245367 2.612183 -2.2123964 -0.05650977 -5.054389 1.395523 -1.7844405 -2.7771518 0.5618823 2.73102 0.44055477 2.7797394 1.2566555 0.44096997 -1.4870429 -1.0078381 2.5613966 4.186013 1.093182 -2.0245612 -2.6442883 -1.6245832 -0.43887112 -3.1947567 4.790214 -2.0259643 0.54837924 -0.0020071836 2.1612816 -3.9638789 1.4424323 2.0104733 -3.261724 -0.74827045 -4.3062515 -3.4725268 3.1299918
type 1.6161077 -2.318125 1.3110464 2.3097997 -0.027075538 -1.3906211 1.7230619 -2.012022 0.82653224 1.8106327 2.7162228 -3.7698355 -1.0473179 0.83491534 -1.8988332 -1.560355 2.0188208 -0.32340685 5.211495 3.3481598 -2.7771387 -0.67722917 1.66864 -2.095702 -3.738598 0.78245157 -1.3290228 -3.0650127 1.7454673 -1.6249896 0.3921992 -4.5777483 -0.85021406 -0.7253509 0.76827174 -1.8017275 0.047873884 -0.906569 1.9905058 -0.0018937014 4.061674 0.63826936 -5.2196517 -0.56351465 -1.2957939 -2.9810634 0.4892558 -4.1300173 -0.54834354 0.34915727
script -3.4390514 -1.7574368 5.3373137 -3.8767407 -1.4742825 -1.2490449 2.8021367 0.70786893 -3.3060164 3.105543 -3.5048509 0.49977568 -0.96532714 -2.1442113 3.7447793 2.7911973 3.1884997 -2.5459964 2.275659 4.3626213 -0.53730655 -1.9066391 -0.40582553 2.1460068 -3.9106867 -2.5756521 1.0295725 -2.3689215 1.6126395 1.0699617 0.40164456 -2.1664407 -4.88635 -3.0365076 -1.0580311 -0.9554189 -6.599616 0.37680846 -1.1624072 -1.6509693 -2.2499366 -2.450929 -2.253013 0.77211034 -0.80887425 -1.3366486 -0.9064433 -3.5914 -5.013233 5.8062696
legitimate -0.5376985 0.51104206 -0.099271744 -1.2372229 1.975749 -0.6694355 -1.721716 -0.37153524 -4.321694 -4.0240664 -0.7574456 1.3837339 2.1747346 0.78232265 1.542236 0.32243082 0.89136344 3.570166 -2.2933443 2.180006 -1.9721795 1.6290724 -0.36768878 -2.9331267 0.23423651 -1.2548931 -0.08149809 3.9576619 -0.88767767 2.900046 0.7551324 -4.137742 3.2500362 -2.6860623 3.2097533 -0.6858118 1.2042637 0.54226595 -3.2783604 -1.0517364 1.388224 1.916417 -1.0469662 0.5475756 -1.5383539 -6.604203 -2.762861 0.44830889 -2.3136225 0.49410236
functionality -2.6639993 -1.7367936 -0.31176913 -1.2536956 0.1909808 0.7783857 -1.0014971 -0.30465406 1.1867478 0.8869432 -2.9311676 -0.2466107 0.56314945 0.19355333 0.31790656 0.9169645 1.7488987 2.4635503 -3.2961779 0.72012573 -2.0107148 1.6470679 0.06321711 -0.38519257 -0.7056753 -2.2093368 -2.2827678 1.8462056 -2.0876765 2.3304253 0.69115216 -1.6813066 -0.38459793 3.8598287 -0.4850726 -3.5296798 -4.5811076 0.40691766 4.4150577 0.3546666 -3.5284224 -1.0573728 -0.15612411 -0.75226414 -0.78935844 -1.9421371 0.4508062 -3.4061997 -1.6439216 0.44612628
victim -2.4446437 -0.44457734 2.326086 -1.1710879 6.5356135 -0.062554814 2.3842716 -2.3659694 -3.308653 -0.7657344 -4.7034264 -4.234703 0.10048459 0.68187433 3.312244 0.029746711 -0.6989915 3.1649408 -2.6546342 -1.5200678 3.1018186 -0.759847 -0.2126863 -1.3166556 1.9831885 1.9588157 -1.7406112 -0.6118469 4.88415 3.2189653 -0.23146692 2.3552902 1.7752752 -4.765292 2.846567 -2.2674487 -4.3560395 -2.606039 -2.6133466 1.8968656 -1.5821805 2.677278 -0.42360166 3.934398 -2.8151236 1.8167462 -1.104504 0.39150864 -1.5744476 1.2488021
send 2.1872513 -0.68972105 1.5825436 -2.841587 2.0211992 -2.945912 3.7354858 1.6742514 -0.12031898 1.418527 0.47308806 -2.2052655 -2.5329223 2.6549866 -1.0642993 1.948285 4.042929 2.1624699 0.94542485 -0.27328637 -4.728511 1.9579912 -0.4898031 -1.5752424 3.1268778 2.983838 5.1542454 -4.04085 1.6404449 -1.2012788 -0.8487022 4.1739826 1.2937353 -2.0963316 1.7823766 -0.14495923 -3.386271 -3.4582407 -2.803441 -1.8978059 2.7662842 -2.5101488 -1.2875315 3.3365567 -1.848872 0.8287613 2.2709436 -2.3963594 2.195715 1.894972
make 0.14674966 0.40560883 -1.060226 -0.59926176 1.729449 0.12618178 0.8381263 -3.8085015 0.7202875 -1.3176641 4.20297 0.78061175 -0.4986645 0.41251332 -0.5223717 1.3367648 1.2949529 3.4845676 2.243703 -1.0002497 -1.1915565 1.8106642 -3.785269 -0.11427927 1.6871035 -1.1122999 2.600789 0.9400021 0.29868674 1.782526 -1.5658414 -2.8899145 0.7386594 2.392451 -1.6815176 -0.12772788 1.2677199 0.79662895 -1.8900225 1.3830416 -0.7986191 2.3808093 -0.5599544 -1.766998 -1.3194444 -2.2370594 -1.6171027 -0.9770035 3.2290711 -0.39205047
often 0.69735 -0.71220976 1.2423725 0.9194502 -0.14526315 -1.8531389 0.42017826 -0.6095235 -1.1674628 4.5733414 3.159586 0.5889136 -1.0436605 0.9339835 -0.9185807 -0.86772126 0.4156007 0.9562903 -1.3748503 -0.7144331 -2.5420089 2.1685686 0.6784057 -1.4776207 0.89786005 -2.245956 2.4288867 -2.1469808 -0.46308535 1.0607626 -0.9627302 -0.1655822 1.3590472 -5.556912 -0.9723436 -1.4155563 0.99781704 -2.7609878 2.515026 0.041332453 2.0702214 1.2277651 0.8310025 -0.13217206 -0.73742986 -2.8231962 -0.6635941 0.2927138 1.2253947 -0.8362701
contain -0.5607756 -1.584292 -2.3972843 -2.2441967 -0.23444961 -1.426678 -0.5267776 2.7549994 -2.7320433 2.0580885 -0.7304208 0.20020984 0.04755314 1.3673749 -0.17170033 1.1102221 1.0704974 3.4788165 2.2214305 -0.44324932 -0.44431734 -2.1782618 0.80316776 -0.8070475 0.72282887 1.8549188 -0.005850662 1.4972994 0.5223079 -1.3644147 -2.8295863 2.082146 0.45350882 -2.174845 -2.0841157 -1.9713793 -0.52433014 -1.4183731 1.3696797 0.45737094 -1.8254905 -1.2641978 2.3941193 -0.11838423 -0.53717434 0.16339493 -0.66542536 -4.6863694 -0.4766274 -2.3093927
host 0.5883595 2.9860895 1.867122 -1.7640909 0.12849516 -1.8306874 3.0743701 -0.9568789 0.557352 6.035154 -2.7236614 1.8569642 -4.272167 -0.36783677 -0.8307313 -0.8349335 2.4996145 -1.1174641 1.0166286 0.16515793 -4.30648 -0.17953157 1.621249 0.39396375 -3.3173532 -1.8399006 -1.1757799 -4.8787184 -0.08520961 1.5694911 -1.4839047 2.1729198 -2.066035 -2.9062147 2.4750144 0.47901252 1.6004242 -3.8664336 -0.67478156 -1.3318871 2.0117846 -0.013395368 1.2766305 -2.6028318 -1.2173218 -0.82303846 -0.63210034 1.706089 0.7414713 2.448007
modify -0.38428265 1.9759097 -0.94422466 3.3622227 -0.34193918 -0.15085657 -1.9661095 2.637784 -0.23590633 0.084568985 0.3117372 0.6031228 -2.1722288 0.87758327 3.4930406 1.2194097 5.363082 2.1713436 1.671326 -2.8074822 0.16039851 -0.4888756 -0.6525289 0.7584384 1.5265243 -0.85873675 2.3012316 4.5707498 0.79551804 2.79119 -0.41593432 -0.7284271 0.0893387 -1.4501996 0.5254646 -2.944404 0.15733276 3.0620892 1.2156117 -0.9302971 -0.8986679 -1.4634904 -0.95200896 0.24178366 -1.3171899 -4.4977975 -3.0040293 -1.2828306 0.4045785 -1.9645165
configuration -0.8755276 -1.0755616 -2.8441257 1.0547427 2.2110703 -0.9897826 -3.4993615 -0.12578422 -0.08864723 4.094952 -1.0131682 2.1124916 -2.1853085 1.5781499 0.55796057 -1.1650994 5.787126 0.23314796 3.1621683 -2.2585664 -5.580565 1.3310331 3.2276926 -2.9324224 -0.5915786 -1.9086677 0.60262203 0.13956115 0.81180257 2.405163 2.1221447 -1.0735674 -1.7260802 0.30211937 -0.3431611 -2.2821004 -2.7536056 -1.1163876 5.686441 3.0931168 0.73338634 -1.2035644 0.37633497 -3.0481353 0.17364287 -2.1519966 -2.995684 -1.5117868 0.5729668 -1.1452708
identify 1.4361315 -1.2013105 0.5575763 2.5789115 5.849186 -2.0852098 -2.4242334 0.23159193 -1.1557626 1.1358552 0.27291572 -1.7495513 -3.5914066 3.0805397 -1.2785316 -4.681468 0.8878339 -2.0028064 5.6947665 2.7690682 -1.0055934 0.2177236 -1.2973664 -4.43225 1.1079227 -0.17507656 -0.020176388 -0.4222712 -0.86466587 1.0172702 0.85433173 -0.43995693 1.0878254 0.5637484 0.63548696 0.112321556 1.5259417 -0.94900304 -0.27081433 1.9836848 -1.2836987 0.22987768 -0.17476319 1.2103761 -2.6923544 -1.8321294 -2.0773795 -1.3953795 -0.4394705 -0.14746675
leverage -0.9242703 -0.7263193 0.9675639 2.1842697 -0.7857013 1.2607255 -4.4106627 1.1189032 -2.0660934 -1.6936901 1.4824618 0.5526882 1.0140511 -0.44902915 1.4681748 -0.53837025 -0.21812434 3.687435 -2.7026637 -0.80661666 0.8271927 3.2467053 -3.6934822 -0.7378323 -2.4513924 -0.9306812 2.0474534 -0.2565562 -0.3495098 2.6012073 1.6811479 -0.34502432 -1.6753532 0.7728407 -0.9514842 -1.5670276 1.5211533 2.5607197 2.193274 -1.1799603 -0.036772367 1.8999631 -0.110274605 2.465675 -3.2193034 -2.2030015 -1.7069374 -2.0262709 -1.9272528 1.0707263
exist -0.99870014 1.9004453 1.4675186 2.1437006 -1.2042497 2.5189178 -0.9747998 0.32726535 1.7985076 -3.1260247 1.9356339 -0.26700544 0.8146637 2.4083245 -0.5547995 3.410192 1.8918774 1.1865467 -1.869881 1.7873666 -0.18861805 1.05588 -1.513988 -1.2530327 -1.1743155 -0.44709012 -0.951649 -2.0394835 -1.5063324 -1.3579891 3.7482824 0.16751875 -0.49052024 0.679025 2.9150283 -1.6032616 1.9058475 -1.7231616 2.0631013 -0.19493724 1.5383248 2.8893921 -1.8612866 -0.7063253 -0.80177397 -0.54808617 -1.9056649 -3.7278867 -1.1785884 -0.0041791243
permission -1.4379735 5.5268145 0.7735878 1.7913594 2.1300151 -0.6235111 -4.2747717 1.786113 2.7624714 0.8358931 3.1286628 3.2194772 -1.5196692 -3.8705053 3.5056388 -2.5868278 1.8678029 -0.17444263 3.479481 -4.022526 -2.820978 -2.7002387 3.5583365 -2.805428 1.1650957 -1.7790146 -2.9280686 3.9571652 -0.69795805 0.8358012 0.8138432 -0.32724568 -1.3888801 -1.8959982 3.6351652 -3.4645553 -1.3637143 2.082103 2.3245275 0.58206105 -2.4793997 0.26085347 -2.40068 0.07719191 0.2598276 -1.5971452 -0.73190415 0.011304993 -2.4522767 1.9679899
citation:_fireeye 3.543696 1.9703789 0.8870746 1.0850574 -0.6925427 0.5303163 2.8290257 -2.5017989 0.9111509 1.7503115 -1.8731065 5.675231 -3.0492477 -0.47092095 -5.572115 2.5504067 -1.1792666 -0.64799833 0.8368824 -0.72863907 3.9259136 -4.0286655 -1.7656925 3.629184 -1.6021875 2.728142 2.1117368 3.6807022 2.162966 -4.1739483 -2.7106152 4.828461 4.282264 2.855189 -1.7693721 1.5431781 -0.6585495 1.5392956 2.3845046 -0.24701117 -2.2858744 1.3483665 1.4410069 4.0736103 -2.668544 4.590767 -4.927067 0.6848963 -0.21320353 -3.229359
domain -0.48405007 6.2102904 -1.1685774 -2.5808792 0.17363393 2.9121242 -0.59206754 -4.0111833 1.1028316 0.6424356 -0.48824692 4.194801 -4.4972405 1.4401788 -0.6658053 -2.6326904 -0.41714254 0.387733 3.3084815 -1.2929629 0.22236377 -2.1584213 3.2520125 -0.05364966 0.76502514 -2.316199 1.0184 0.08819199 -3.9114962 2.0071023 -0.88264674 1.4835658 -1.4550622 -4.4433784 1.7264454 -3.1327565 -0.84821326 -4.171617 -3.1733177 -0.5421465 -0.701506 2.880819 3.8538303 -2.6336536 1.1192298 0.649688 -0.29472506 1.1904268 -0.9334826 0.085391924
store 1.0429578 -1.4707234 -6.128 0.93119895 -0.3840744 2.028562 -6.456985 -1.5543025 2.4008722 2.5145595 -0.6395425 0.25699937 -1.9129537 -2.601702 0.40853187 -0.5842859 -1.3311371 2.7122376 3.0990021 -4.188368 -5.5657 -1.8776826 1.2903575 -1.7238073 4.0909333 -1.5686852 3.4798334 2.6388133 -0.33111948 -2.6717417 -1.1092492 1.0371829 -1.6230204 -3.3872528 -4.178312 1.3359411 0.31400797 3.5599966 1.8585852 1.371486 0.9804336 0.7570692 2.1137302 -5.0877824 -0.9440124 -0.03839858 -4.207448 -2.9638147 0.18252896 -2.371729
know 3.0871427 0.2548157 -1.3019395 -1.2956356 5.747259 2.837475 0.090849 -0.4390408 0.4487657 0.028712021 5.596297 -0.7264516 -1.541484 0.6450722 0.32890835 0.12287826 0.5074169 1.6182013 3.2593727 1.1342839 0.10920597 -3.0307035 -0.7610514 -2.379354 -2.21681 1.9596233 1.4696196 -1.0360115 0.6307811 1.3776919 -0.49559724 0.12498538 1.8392875 1.1719913 0.16183802 -1.551045 -2.3179784 1.6087317 -1.1836149 3.3080301 -1.1635221 1.1529988 -0.83630556 1.5402032 -1.4998364 0.23057297 -2.6229737 0.5655461 2.753876 -0.57804304
client -3.6931643 2.5983777 -1.4934703 -1.8710816 4.7723145 2.9306602 -1.2068279 -4.041753 -0.46202773 2.6948354 0.70423865 -2.5950198 -0.514352 2.1894314 -3.3893754 2.6981936 5.0842977 2.8465657 -3.1710534 -3.450401 -3.3669872 1.0532736 -0.7114977 1.6406286 0.41145185 3.8629034 0.44152433 1.6959548 2.6107583 0.38796037 -3.551221 1.642643 -4.937788 -0.45604166 2.3933995 -1.5061859 -2.504678 -5.924102 -2.1565218 -1.7453872 -0.99475044 0.66085315 -2.7010899 -0.5314188 1.6652807 0.50728935 3.0155532 -3.6634748 -3.5331445 -3.2989175
load 3.0642595 -3.3545783 -5.3008723 -4.5146346 3.5742297 0.44951165 -2.0652382 3.9811144 -2.1031106 0.34680668 -2.581747 0.70271224 2.3360646 -1.7072715 0.8224834 3.279242 -0.33065978 0.7433294 -0.60671985 -0.336571 -1.7376673 -2.5583186 -0.41980812 -0.35738763 2.505018 0.007403983 -2.7339385 3.149541 3.8911326 4.6195035 1.6826565 -2.1688428 -2.521799 0.50027305 4.1747494 1.9401823 -3.3042502 4.2894993 1.2043612 0.007095765 -2.6421452 -0.3958117 0.1234401 -2.2025428 2.6394188 -5.7893877 -2.0823724 -3.496469 -0.8368449 5.2151103
e_g -2.5839818 0.7926942 -0.11108885 -0.12659253 -0.5730933 1.5544479 -3.2470078 1.6883802 -0.20143367 2.4576306 -1.6271192 1.1915929 -0.10131941 0.5973157 -0.33773348 1.4728042 -1.705577 3.3615377 1.3757902 -2.201193 -1.9179443 0.67832565 -2.2813718 -2.9203205 4.321787 0.57233804 5.166999 0.9737923 -0.51992244 -1.6756103 -2.4487627 -0.52425635 0.32470644 -2.7135453 -1.8414817 2.9442787 1.2554742 -1.5396181 -0.2721575 -1.6183201 4.0628014 1.4392726 0.3068922 -1.4397331 -1.1559122 -1.2952523 -1.8630363 -0.1372506 -2.6945074 0.122655526
bypass -0.13756773 0.20059223 1.9549857 -2.3638172 -4.5425196 0.08594708 -0.33245075 4.399112 -2.3571084 -3.1284528 0.94292223 3.0605867 -1.7393647 -2.4703815 1.9068905 0.06278796 0.77449614 -2.2664483 2.165795 3.5853066 -0.8278801 1.3584259 2.0518134 -0.82648087 -1.1524736 2.8522923 0.69516605 -2.9450712 -1.2973812 1.377092 1.7812539 -3.3125525 -4.806763 3.9471147 2.1695495 -3.3054848 -5.4781365 -1.8550835 4.697188 0.3221684 -2.6386826 0.8601861 3.486945 3.7771983 -0.64266187 -1.8847314 -0.941968 -3.586516 -3.276444 4.233058
key -1.1453463 1.8598195 -3.4173903 0.9751169 2.7705731 0.18793292 2.100614 -1.079367 1.9275181 -1.8468648 2.589328 0.93415433 -1.210576 -2.5335066 4.693369 0.5188119 -4.541567 -0.1851128 4.2916923 -1.5716674 2.0205553 -1.1088047 -3.9726121 2.9216394 2.9589176 -0.046764642 1.2711623 1.3823061 -5.6078978 0.33078855 -0.10171483 -1.4642525 1.6492972 0.8284934 1.4815642 -0.9927681 -1.7430223 4.1859717 -1.1699083 3.5806599 5.181499 -1.6848505 -2.4189432 -3.0101497 2.9086156 -2.435201 -4.8437986 -5.675875 4.2020917 0.29302156
attempt 0.10187144 0.30415115 -0.59344906 1.1035941 4.8236966 0.3090062 0.017155804 -0.47360024 -1.1551715 -1.7942352 0.90108216 -1.0466118 -3.185909 -1.9195536 -0.565594 -0.7765717 1.2890729 3.9843094 0.7928889 0.5984235 -1.8344078 1.741213 -1.0371499 -0.42786804 1.5608915 -3.0747404 5.4643908 1.034983 0.36715686 -0.24471381 -1.2419413 -1.3001958 0.5955517 -0.9678816 -0.60287076 -0.10229607 0.0050770524 -1.2600789 -1.4669238 -1.1667274 0.2195856 0.5496202 2.7110147 1.4240718 -2.521858 2.2878683 -5.2588277 -0.73832726 1.8168244 1.2975727
cause 1.6447648 1.8828934 0.6704531 0.7083506 5.0154934 -3.761296 1.5035043 2.0317037 1.7241501 1.4607815 -0.6949282 0.57214767 -1.0811136 -0.5799741 0.4209526 -0.446078 4.2627826 3.73403 -2.5966597 -2.1352227 -2.4275544 1.6453638 0.26665857 1.789267 -1.8922766 2.648055 0.070927024 3.8663008 1.1350949 0.9253176 -1.5781653 -1.4696894 -2.3199334 -3.036141 -1.1196139 -2.282172 -0.17872714 -0.95368063 2.9308262 -1.4194529 1.1570394 -1.7070726 1.428845 2.1103272 -0.122987546 -7.2788157 0.6363475 -2.3186133 1.2778027 2.2130318
result -0.29982814 -0.015509145 -0.83229667 1.8333933 2.7050848 -2.1634293 1.7151415 1.3743579 -0.43295923 0.94964975 4.4697714 -2.5287204 -3.5485055 0.43095297 0.008556962 -1.6230984 1.9292973 1.7880856 -0.94187504 -1.06674 -4.1808376 0.3893145 0.625686 0.55367804 1.3387954 1.2659558 0.28832537 1.5501666 1.9875124 0.7353611 -0.20972371 -2.4096947 -2.4862044 -3.370431 -2.7662137 -0.9298709 2.287054 -1.9693712 4.435231 -2.8663836 -1.4225649 0.2549606 1.8309839 0.95425993 -3.2061033 -4.500518 0.72265273 -1.3346031 0.98597836 0.6080236
privilege 0.06946871 3.4535854 1.769183 0.83593863 4.0817738 -3.54685 -4.8762164 0.87671834 3.1681633 -3.3946965 1.9005108 0.23868102 -0.43223023 -3.380934 4.0711746 2.1844106 0.83092254 -2.5730722 0.8921893 -0.23827653 -2.4091473 2.021103 -1.4175721 -3.6829839 1.8119375 -3.1908233 -2.185928 2.5828426 0.7245748 5.076534 2.5866466 1.0833753 -1.5284653 -0.89970654 2.7738137 -0.17901564 -4.110198 -0.03506764 0.90333074 1.3481863 1.3690594 2.3458018 -0.82469934 1.9073571 2.8116417 -6.4221497 -0.4143192 -2.4793644 -4.031931 5.520283
enable 0.7576591 5.2603154 -4.1619635 0.40197325 -0.5770736 1.2076 -2.2148745 0.6656972 -0.15164576 -3.844804 -2.0452857 1.2046391 -1.5125002 -0.6707441 1.5499127 2.2845929 1.1827649 -1.2981082 -0.8380156 -1.1872109 -0.9201455 1.0572739 -0.6492905 3.1653156 -0.64919364 0.45441154 1.2998163 3.3639805 -1.8381909 -1.0196424 4.067573 0.9122402 -2.2287092 1.915165 2.486101 -2.7840366 -1.3250461 -1.7341032 0.69025534 -0.83631927 -0.70760524 3.2526388 -0.36242712 -0.77944714 1.014586 -1.5366585 0.47330517 -1.7470286 -1.7189969 2.4185355
component -0.5349323 1.6051313 -1.7253073 0.9911402 4.4906087 2.3253255 0.4443459 -0.26949853 2.2224724 -0.5600525 -2.0840995 -2.5262413 -0.49401826 -0.53238237 -2.2536886 2.4798105 -1.868677 2.0220518 -6.8140965 -5.307496 -0.6245855 -0.43844068 1.1562943 2.2596743 -1.4757688 0.09817639 -1.201789 2.6524923 -1.9143454 -0.027059933 -2.538207 -3.4643903 -2.143174 -2.0039892 1.8179464 -3.49123 -0.022610072 0.16940686 3.3180404 -0.8498374 0.59159136 -1.6755313 0.39513487 -1.3913345 0.7484265 -1.9968774 -4.5558667 -1.6825854 -1.5231535 -1.6697055
set 0.18434873 2.8754606 -1.8097664 -1.4804196 -1.8897387 -1.8938239 0.50226766 -0.84833467 2.8726647 -0.21421733 -3.3145585 0.323592 0.7363573 0.103977755 0.906518 -2.5867102 -0.63009924 -0.9982121 5.973993 -0.8683607 -0.3257034 0.8390142 3.7385237 -0.14408952 1.8698372 -0.4762796 0.82548046 -0.6993488 -0.6307936 0.24279392 -2.6931257 0.48439813 -3.479443 0.32291892 -2.8914235 -3.8796868 -1.1244624 1.3972719 0.310559 -1.1442626 0.41858393 2.9594016 -3.4702015 -0.31282502 -0.35464177 -3.7210228 1.399398 0.24496599 -2.0281239 0.91399413
name -0.2568854 0.101199105 -1.8294032 -1.4996185 1.5308207 0.6773758 -2.216754 0.9524997 0.7139432 3.506384 2.151957 2.0503345 0.3575272 4.037428 4.488828 -1.207771 -0.026685083 3.0138433 1.9563502 4.089472 2.530402 -3.809232 3.058157 -3.386814 2.0610495 -1.9150535 -0.2656111 0.6338943 -1.4071376 0.02569576 -4.1895256 0.9564377 0.7455676 -2.6097064 0.5590481 -2.8000374 -2.2163537 -0.48619872 -0.064524025 -1.5115693 -1.1480112 1.9840684 -4.8427076 -1.8294431 0.9882066 -4.1155877 -2.9605353 0.36156622 1.5008072 -0.18930994
ensure -1.9368204 2.1491084 -2.9368048 -1.1864816 0.45618853 -2.387953 0.72268486 -1.3771896 3.4479294 1.3693194 1.0086831 1.4713463 1.5299716 -4.5015006 -2.0702894 1.7082676 -2.6118603 -0.19914724 -0.061190538 -3.7390437 -4.154265 0.9636975 -0.46746323 0.92855084 0.6884612 0.31468576 -1.8088479 0.82470703 -1.5629214 0.43268922 1.5014377 -0.39282125 -2.3987768 0.58564425 3.0717263 -2.9758127 1.8696071 -3.124494 2.6037033 2.1019313 -2.1310592 1.4377997 1.2519516 -2.2939496 1.4811528 -2.199719 0.41994134 -3.7580943 -2.743836 1.213341
filter 0.06037966 1.5917699 -3.8155608 -2.284438 -1.2140718 -5.884851 3.7833588 1.6581042 -1.1183052 -2.71229 3.2580674 0.9509038 -5.946338 -0.4206953 -4.376807 -0.18463029 2.146132 2.5537217 3.0571382 3.9651725 -1.4900498 -2.6803672 1.5638714 -1.1772115 1.9621426 0.9826457 3.840193 -0.4544429 -4.3330126 -4.9226336 1.7413417 -3.6515992 -2.7801926 -1.5885906 -1.8246906 -0.62304974 0.5816075 -2.8949986 3.023243 -3.784045 -0.84174377 1.0251987 2.0029342 -2.442295 -0.5821684 -1.7240624 3.628061 -2.6366694 -0.78293335 2.409619
traffic -1.0115383 2.4187906 -1.2542313 -2.667356 -0.07467269 1.4751605 2.1808527 -1.7183039 -3.4028533 -0.26420328 1.6814444 5.803167 -4.5816197 -1.7940694 -3.413983 -0.4467746 5.717975 4.0504227 -0.882239 5.171376 -1.9871271 1.8089912 -1.9643239 -0.33526585 2.0125592 -3.2063417 4.0416093 -3.1834402 0.28652936 -3.4790416 1.7548207 -0.8425654 1.1407319 0.9296148 3.3699708 1.0414275 2.378727 -4.0866218 -5.9419713 -1.2166842 0.20499 3.9114895 -0.21134026 -1.989395 -0.4973383 -2.157687 -0.6778811 4.8234134 -0.118499875 0.41391
many -1.9586335 0.75994104 0.87674844 -1.206506 0.016343854 -0.1369909 0.0070164506 -0.0122015225 1.0213606 2.8634558 0.55513275 -0.3516466 0.24123327 2.2828643 -0.7144138 1.7597009 -0.43492487 1.1730379 1.625203 -0.1877757 -0.121203825 -0.6954577 0.7554916 -3.585151 1.4571179 1.4768382 0.3484157 -2.7650282 0.5097585 -0.22809479 1.5375019 -2.7894335 -0.7788735 -0.9299026 -0.63058716 -1.3875884 -0.16633591 -2.198973 3.263126 0.75221884 0.92416507 3.760016 -0.8056402 -0.13219972 -1.5692457 -1.9586307 -1.2701545 1.2348944 -0.9352235 -1.0904306
port 3.4031105 2.7823284 -0.055505384 -2.2145216 0.1672312 -0.27740785 4.3733683 1.6682494 -0.29251194 0.5385921 0.7984386 -0.80674547 -3.9860141 -2.6460068 -1.8230598 -2.350122 7.061279 -3.3842003 4.405121 6.415665 -6.2515464 0.51779723 0.6578663 -3.5199199 0.26096502 -0.63772774 3.2917166 -5.686233 -3.6239204 -6.3049755 4.838406 1.9203855 -0.5142821 1.6052653 0.2622828 2.614598 0.069851965 -3.6495943 0.397077 -4.5373483 4.4895735 1.5267782 -2.1258461 -0.7052702 1.9924438 0.48744088 0.29039207 1.1461604 1.4235303 5.9995213
communication -1.252497 -0.8379544 0.82431495 2.1579921 0.55321884 0.50766265 0.37912327 -1.6820426 -0.812856 2.330194 -1.0036213 3.031818 -2.7462213 -3.409731 -1.7764674 0.76065147 2.9810016 2.621577 -1.0246788 2.2195044 -3.980917 5.534812 -0.33402744 -0.30568928 1.8018088 0.012547578 2.5069807 -2.5094986 3.0452738 -1.693852 -1.3122244 1.7451174 -1.3233534 1.2270674 3.3277845 -1.0413121 1.4537987 -2.0462408 -1.7483686 2.3505843 1.4722141 1.8433292 -1.527158 -1.081741 -0.7779904 2.7992187 -2.8924212 -1.2037424 -1.6022533 -0.5648367
order -1.1364212 -1.0696154 0.08662344 0.9148315 1.8012984 -0.028475272 1.336179 0.5446962 -2.8674588 0.14943627 -0.07242603 1.345555 -2.11356 0.73219955 -1.3867133 -0.0123917945 1.3111483 3.606246 1.9193374 0.5553298 -1.613731 0.05365087 -1.1459728 1.6078042 -0.0028479015 -2.5882432 1.4490486 0.16113931 3.1522498 2.696949 -0.93274647 0.7821258 0.41759583 -0.2016963 -0.074566245 -0.3877872 -0.4644637 -3.2280273 -0.65073895 1.1190927 0.07450295 0.28420097 2.7338486 1.0609292 -1.6962436 -1.2033978 -2.3071082 -0.4441945 1.0763763 1.2089454
time 1.9706366 -1.8128663 0.276798 -0.16526571 5.295782 -0.44182387 1.5532575 -2.6713223 5.839929 0.83519226 -2.810872 0.6465396 -2.0006413 4.0316343 0.60658056 -1.6597757 -0.40094662 0.870642 4.764257 -0.27347264 -0.7688288 -2.4225218 1.2695379 1.0146286 0.44812068 -0.67253566 2.6562893 0.8280518 -0.98501265 2.2797785 1.863905 -1.0806825 -1.3985509 1.2631835 1.1064712 0.65487874 1.8889966 1.4969076 -2.1542215 -3.6269324 2.429609 0.11267398 -3.2286212 0.7032929 1.6422819 -3.6651795 -1.326499 -0.15490928 -1.7725531 5.552645
change -0.9734042 2.4450426 -0.7765535 0.7277901 1.2902005 0.65315425 -2.8746927 -2.3420615 0.25575852 1.6286753 1.2830973 1.1059437 -1.1558917 0.010553005 2.2613516 0.37660822 5.820714 1.1450247 1.9447575 -1.946076 -1.6153607 0.022422131 2.3089397 -0.3894326 2.6984534 0.49566865 -2.5038867 3.5477738 -0.50705415 2.0467424 0.54604036 -1.7703719 0.65929794 -1.1321558 0.4592245 -3.5172837 -1.4611238 1.2666466 -1.6600934 1.8651668 -0.13581811 0.023165487 0.91195947 -3.265993 0.28635007 -5.688632 -0.18564977 1.4421233 0.76471114 -0.86953056
directory -0.8419171 -2.268935 -7.268071 -2.9165206 0.09961688 -0.75192803 -0.8870129 3.4549344 -0.5547477 3.1108084 0.48325104 1.7155857 0.47620922 0.9370913 3.15846 -0.12517914 -0.92955416 3.6267095 2.784802 1.416517 -0.3850273 -4.214177 2.5817132 -2.835943 3.9815922 -5.866209 -0.014355122 4.20436 2.6998818 0.05092895 -3.5178099 2.37297 -0.78596413 -3.2157383 2.9744413 -2.7358148 -0.275182 3.1121786 2.8338306 -5.076621 -2.5700605 2.5181746 -6.8128505 -2.262791 0.40301406 -1.7173288 -3.6746376 1.9772725 -3.183707 4.1057115
operating_system -1.4840862 -1.162162 3.610057 0.9280334 2.998947 -1.0337965 0.040581416 0.96843106 3.6139927 2.70456 -2.3346295 -4.439923 0.054663416 2.842453 -5.167185 0.9277757 4.0238924 -1.6212819 0.73369765 0.20773382 -3.042049 2.857974 0.3438991 -2.7432249 0.43966272 -0.4532364 -2.6185248 -2.1675975 0.23139745 3.1229033 2.3896556 -2.5652814 1.9456598 0.62370443 0.015500799 1.359443 -1.9093469 -1.1840881 0.37678137 1.5076283 3.0495849 -1.1460755 0.2296076 -2.776054 2.1983669 -2.8263173 -3.5908115 -3.5588188 -0.15446 4.009049
way -2.4900608 -1.1186985 1.0826069 -0.2060277 0.7910377 1.5499487 0.77069694 -2.9027934 1.101303 -0.85066414 2.1792831 0.07936583 -1.2076057 -0.9940146 1.6162835 0.9844883 -0.8037157 2.9932532 0.5261855 -0.54610157 -1.891063 0.38033366 -1.6394645 -1.9785714 1.2492645 -1.7811475 0.33714265 -3.8805645 -0.38145724 1.0953776 2.248319 -1.011466 -1.4340059 0.5350127 0.82995564 -2.1896913 1.0085877 -0.40386006 -0.8243302 -0.6436075 0.09084027 2.8537674 -1.1426024 1.9173977 -2.9933581 -1.1668513 0.51302063 -1.5296074 1.2943841 0.6868459
input -0.09039987 -1.9835469 1.1265585 -0.17743264 1.900015 -3.1383336 2.285799 -1.938933 3.9812522 1.8064857 1.0745898 0.9595222 -2.9669538 -0.46161565 -4.6727104 1.6066673 0.23446934 2.9062526 -3.4687145 1.040184 -1.1611576 -1.718974 0.40978625 2.2473867 -0.00519198 0.056032397 1.7526946 -0.22113006 -1.0614395 2.4807827 -2.2441692 -1.6961015 -5.3535476 -3.4507165 -6.297455 -3.691012 -2.211683 1.0772537 1.6859409 -2.7842445 -1.5116358 -0.64161515 0.4673017 -1.6703854 -2.932642 -3.845885 1.7728615 -6.2793 1.5949388 2.8614945
well -0.40949017 0.67904985 -0.44504264 0.11611033 -1.0121512 0.19657923 0.62434757 -1.7902576 -0.71241283 0.8402073 0.36912864 1.266529 0.8755798 -0.54287946 0.7757963 -1.0297469 2.0784903 -0.024608752 2.982851 -0.101024084 0.97934633 0.38010925 -0.21043538 -0.46981132 -0.98046154 0.53105223 2.1748865 -0.7732637 -1.4619719 -0.5217964 0.6194395 0.8460711 -1.9036368 -0.6243161 0.12115501 -0.42573 2.3732314 -0.48671523 1.0388513 0.3571084 1.0579919 0.32959267 -1.4082003 -1.378635 -1.5677208 -0.22022451 -0.7239252 1.3245573 -0.41850227 0.037866
function 0.17405294 0.6468311 -1.6435857 -0.3873721 0.27531508 0.79609966 0.99012506 -2.4431303 3.55026 1.1637387 -3.0649834 0.56370103 1.4039166 0.29763886 -0.6568485 4.0697913 0.46036968 1.8249768 -3.4591014 -0.81804067 -1.7988853 -1.0140966 -2.3570917 2.0391471 0.1380044 1.1640412 -0.42458314 0.60482675 -1.6899618 6.8242683 -0.97977227 -1.6594374 -0.94069904 0.2537194 -2.1976054 -1.9160748 -0.04053003 0.5011408 1.5489686 -1.2447067 1.8873506 1.7885284 -0.6748416 -5.6259303 1.7998616 -3.580589 -2.3515084 -2.8507118 3.5871623 3.2455142
common -0.11287701 -4.3354917 0.8413835 -3.283493 -0.91467845 0.69233304 -2.0123565 -0.6558718 0.3806072 1.6179534 1.9344044 -0.7096322 1.7906522 1.8124263 0.56759083 1.7925602 -1.4522626 0.7748379 0.2746249 1.7016718 -2.276939 1.185054 -1.5297445 -2.4999123 -0.78513086 -2.5144303 -0.45226645 -4.208987 -0.8628962 -0.34161276 3.756248 -1.9177754 1.7830882 0.3708037 -0.13398279 0.4904782 0.060561653 0.15899053 3.232929 0.49755085 0.013973435 1.6522205 -0.65399796 -0.51727754 -3.4449992 0.39134017 -4.7114153 -1.8835338 0.03250107 1.5249416
vulnerability -2.351205 -3.5084536 -0.39984214 -1.3755296 6.244823 2.739617 -2.826987 1.9207143 1.7986107 1.2708104 3.0800486 -3.3620646 -2.0461242 2.1127365 -3.177094 0.79279184 -0.3700252 0.712125 0.86214083 0.91836137 -1.8383372 -1.5414999 -2.7602324 -2.6318445 -1.1536316 0.7442193 -3.3511271 -1.1179018 4.6721487 -1.5075526 2.788289 -2.3648207 -2.1551287 0.8481733 -0.59805036 0.02612857 -1.8550247 -2.9585433 4.250149 1.3119243 -2.9485714 -0.95525295 -4.056298 0.07639777 -4.51506 -2.0180752 -3.501232 -1.1909479 -3.0094163 2.4208603
determine 2.9018102 0.12663254 1.9403147 2.5416837 4.4482417 -2.7990723 2.7935448 -2.1726468 1.668694 1.2722744 2.39055 -2.1913478 -1.980263 1.3400658 -1.6699245 -0.7458976 2.7460225 -1.5104976 5.4791064 0.8226343 -1.7382658 1.3122658 -0.05814458 -1.6348673 -3.980188 2.5447872 -0.98306024 -0.74146324 0.096618116 -0.7990332 -0.7730295 -1.1620126 0.9416247 -0.14791071 -2.3914478 -1.2690816 0.6771587 -1.607095 -0.7280878 1.9494315 3.4902155 -1.0616388 -2.8474708 -1.5085931 -0.9660293 -3.3855724 -2.168351 -1.0300157 -0.38960218 1.0064073
binary -0.26165453 -0.19513649 -1.8971709 -1.7975808 -2.063224 3.9489365 0.94116396 0.5054319 -0.42223296 1.5621709 3.284226 2.0464673 3.680231 -1.1334116 2.6846864 3.534674 -0.4077784 1.0789795 -2.5700238 2.1666381 -2.171452 -3.050152 1.7394301 1.7552758 -0.45258042 -2.8872836 -0.9938497 2.9735692 1.6516731 2.853009 1.0604709 -2.821115 -0.0104354685 1.2824299 4.5191007 -4.8451624 -3.298168 2.9312236 2.6748316 -0.9510706 -1.7104065 -1.0970826 -3.1316376 -2.2449124 4.0630503 -4.5332828 -3.6968942 -2.0841346 1.1268889 1.7197558
value 1.0873165 2.3824403 -3.435929 0.57411236 3.2300858 0.5407609 3.1560462 -1.6082431 3.6761343 -0.9541104 3.9110892 0.6114889 -1.0950694 0.37765703 0.005828572 1.3951588 -1.047427 1.3642465 1.8076576 -0.39437127 0.49171168 -0.5344387 -1.3770176 3.1538694 3.1271348 1.9050609 2.6471138 1.9802734 -1.6012049 5.7242727 -2.285186 1.242154 -1.7219008 0.9310415 -2.6817803 -0.30959395 -2.0129366 -0.03876867 -1.613009 -0.06710307 1.4501623 0.77656305 -0.55328006 -3.6297665 1.8583151 -2.2722692 -1.6683648 -4.4920664 4.2390084 -0.0763714
browser -4.334751 0.26920345 1.0589668 -4.47683 3.187468 -2.3327696 -1.5300789 -3.3290966 -1.3643562 0.20576088 1.0355177 -1.7010535 -3.134643 -1.9312901 0.741786 2.0258067 0.028273087 1.0488478 4.3421154 0.110448875 -3.2397342 -1.2335624 0.71825284 -1.9247937 2.501927 0.9841756 -3.5512302 -1.1250516 5.293555 2.2538428 1.1382791 -1.046805 -4.3619986 -2.7209551 4.2260075 -1.1910565 -2.6189816 -1.6743098 -2.038151 1.8675585 -3.5512512 1.7576894 -3.6380877 1.4573966 -1.3546265 1.0029674 4.126286 -3.8253691 -5.353902 2.181501
possible -0.5443426 1.6065767 -2.2774494 -0.04004358 0.33604464 1.0149657 0.023695186 -2.1046524 1.3340671 -0.12936418 3.1634438 1.7226758 -1.2787312 -1.5706507 0.8549338 0.1980661 0.39618918 -0.4956274 -0.22818501 -1.1307186 -2.6079159 0.5101553 0.020944187 0.79307413 0.112149775 0.5547822 2.1103113 -0.57817066 -1.4854423 1.0405811 1.30553 -0.056585602 -3.0597856 -1.328917 -2.1832995 -1.0369698 1.6430084 -2.1414328 0.6447572 0.9313723 -0.41126707 2.4170763 -0.47187474 0.87511784 0.40131053 -3.3183103 0.12595898 -2.5669925 1.6926322 0.34523726
response 0.5817853 0.9049743 1.2796881 -1.6563004 6.03406 -1.7763886 5.9947586 -2.0085952 0.15877059 2.1744647 -1.4088849 -4.0532393 -6.076859 2.3597605 -2.5313578 -0.35623914 4.255806 3.3553443 3.6005714 2.603011 -2.5204904 -0.06924237 1.5525894 1.3887992 3.9534764 2.0942454 2.4071996 -1.9513028 1.0293672 -0.12559038 -2.2147455 -0.9961969 -2.9331198 -0.22043802 -1.3417356 0.39419696 -2.0898423 -4.5821385 -2.8753946 -1.3927978 2.41269 0.16306037 -0.8023984 1.031305 -0.64182436 -0.8293503 2.2616172 -1.3817717 1.888115 2.4946232
behavior 0.00176401 -3.091657 0.8124396 1.3319538 3.0723016 0.9829249 -0.16648598 0.46307093 -0.475286 0.71583146 2.6257408 -2.1869936 -3.9263222 1.8497044 -5.8263516 -0.54228234 4.980697 2.973568 -0.16434252 0.6928359 -3.3356698 -0.732901 2.5865982 -1.2707932 -0.77241975 -0.14552468 -1.1718546 -0.53541625 1.4146649 -2.346423 -0.542545 -4.78285 -0.8547305 3.1251264 -1.168056 -0.30684763 -2.1615143 0.59056425 1.8456959 -2.2505012 -0.27967802 -3.6736147 0.18411894 -2.663096 -3.4392056 -0.5361694 -1.0237528 -0.34749264 -0.09244108 0.75900406
action -1.6340805 -0.395255 3.241565 0.93520004 2.6597707 -3.925104 0.5397056 -5.8305063 -0.10949208 -2.13484 -0.6563032 -1.2394441 -1.3294551 -2.6765964 2.1514544 -0.9580837 -0.58485615 5.853505 -3.0697305 0.07907542 -0.43044448 2.188999 2.0239549 -2.2304127 2.7422416 -1.5126036 -1.4295188 -0.055217884 -1.2083648 0.48292777 -1.0263036 -1.4460428 0.15037134 -1.6371691 -2.0676718 -4.8504353 -3.5125592 0.6771163 -0.03297822 1.5550778 0.67203265 -1.0822178 -0.7811135 1.5915085 0.30911535 -3.4049058 2.6256192 0.27110702 1.3168449 2.4851494
authentication -1.8052249 3.704286 -2.7599878 0.3785604 1.4726466 -2.079436 -3.0822074 -0.9779443 0.77578485 -4.694931 1.5392052 4.3837566 -1.1269544 -2.2098212 -1.6365914 -0.034481265 0.6283649 0.30829594 -1.4510826 -1.7864594 0.14069173 1.3833847 -2.0043497 0.5477923 5.7546697 2.1354845 1.9470057 -2.0799508 -4.0075197 2.2788525 2.6234767 4.2528315 -3.1805005 0.5279495 2.2615855 -1.4959278 -1.8644544 -5.6105413 -1.6137683 2.2544973 -0.30875927 -1.1161999 0.8990119 0.04851644 -0.92548287 1.3903437 -0.62176126 -3.9313147 -0.15420775 -1.6867875
generate 4.2369704 1.6227175 -0.33321464 -0.9635249 2.3724346 0.10140109 6.186459 -0.84167135 0.944895 -1.2528307 4.428014 2.8521316 -3.5109215 -1.5536321 1.3255336 0.32573622 -2.8895452 0.41938016 3.462544 0.2799857 -1.6757824 0.12978704 -2.410259 -0.8764577 3.0026731 1.4809705 2.6181219 -2.8782508 -1.3976609 1.9584956 0.0012486577 1.8893237 1.8119814 -1.0291106 -0.1364644 1.4492365 2.0977952 0.20229532 -6.264696 -1.1435537 6.0250597 2.1406188 0.3338373 -0.43546444 0.90298444 -2.1097026 -1.947025 -1.5973195 1.4480494 1.3244727
organization 0.37687027 0.9873815 0.88078517 3.7450793 4.7465463 -0.4195469 -0.043432217 -5.2255454 -1.6409496 -1.4473459 -1.0737379 -2.4246757 -6.563827 0.08120115 -1.5270815 -2.4326618 0.90688264 -0.20966287 2.4563797 2.1224012 5.433088 2.0979588 0.9644281 -1.5850503 -1.7252821 -0.7214935 -1.5649407 1.5223706 0.1686777 -1.5612833 -1.4673208 0.42584825 3.840638 -0.41495377 -3.0870306 -0.43053198 0.93853617 -4.057252 -1.025411 0.91938573 -1.3726847 3.8391597 -0.61809593 0.21710294 -2.0757196 2.0353365 -3.3088372 2.6008034 -2.9178805 0.1456928
call 0.2430156 1.110236 1.9589624 -0.15602848 0.117593646 0.53895986 -0.80176455 0.57218623 3.0566428 -0.31648302 -1.8226917 -0.13077734 3.047774 1.5930688 2.4888434 2.1307178 -0.082352534 3.2118735 -3.1298153 0.7824191 1.8428243 -3.225281 -0.40244138 -0.101713784 2.2481291 2.173189 0.41825143 0.5126153 0.29046336 4.249345 0.4460065 -1.2498891 0.02342066 -0.94793963 -2.362682 0.014101784 -3.5173163 3.5652661 -1.2587502 -0.9764005 -0.33979133 -0.21214096 -0.8274303 -1.7272166 0.28079674 -3.0048068 -2.7723706 -3.2551067 -0.3519836 3.5047886
protect -1.1851292 0.9077026 -3.9501996 -0.054610334 -1.6092669 -1.1955793 -1.6201069 1.641866 -0.6944267 -0.88663954 0.6874632 4.1424975 -1.0961262 -3.6116118 -0.655926 1.7376554 -0.25070286 2.8943076 0.7152887 -0.6951339 -3.8997967 1.1726576 -1.5433513 -1.0919377 2.1377568 -1.4270263 1.5926235 0.8097864 -1.6675162 -0.38531896 -0.82349205 2.7142737 -2.4016438 1.869928 -0.034449138 -4.325635 0.47306874 -2.0772696 3.5954862 1.0824857 -0.7951017 0.88975155 2.7255852 -1.7928578 0.25025305 0.3630474 -0.8391963 -2.59827 0.21375069 -0.07339715
log 0.47008863 1.2172513 3.0368357 0.08768441 -1.249766 -2.2197137 -2.632506 0.908237 2.5500457 -2.7003038 -2.8214314 0.7219003 -1.6924493 -2.741752 0.51090497 -2.8439794 1.4266266 3.8230355 1.3279544 -1.7160667 -0.12841524 -4.602501 0.9237373 -3.2806664 2.4284248 -0.5972484 1.943226 -1.162614 -2.791891 -0.11429482 1.4377773 1.7105236 -1.0679294 -2.6068165 -0.22721735 -0.19563554 2.8309653 0.92653584 -2.2634454 -0.067078896 -0.4223268 -1.627122 0.94657445 0.19206043 -5.009977 -2.3222103 -0.8564968 -0.8374811 2.0013323 1.0252919
environment 0.4437359 1.4529253 -0.1723836 0.95515215 0.46328202 0.70559144 -0.7130889 -0.67852527 -0.28871873 0.5140068 -2.0715656 -0.7460343 -2.6341321 -2.2357972 0.24497658 -1.2762227 -0.14865448 -0.9947917 -0.083286986 0.5535697 -2.010066 1.6849754 1.8339187 0.5183727 -2.352845 -4.042245 -0.42234802 -0.7343042 1.4737126 1.2616128 2.257583 -2.6527557 -0.8884532 0.9010858 0.56660825 -1.7289968 -1.4978489 -3.6406372 1.0628617 -0.14526618 1.5460187 1.0248094 1.1530541 0.24057809 -1.2461387 -3.1454403 -2.0208771 -0.270551 -2.9511392 1.1387941
local 0.07288575 2.8081095 -1.6852287 -2.3638499 3.0877433 -0.4737792 -3.119339 0.80654216 0.32895428 3.3082774 -2.5579166 3.0602841 -2.5957413 -1.1129457 1.1018392 -1.7018969 1.5684747 -1.1065767 3.4810133 -0.8615622 -1.4035202 -4.8668385 3.8632855 -0.13922954 -0.19179194 -2.7851827 -0.15171064 -0.30183074 -1.8412185 2.3987045 1.3240969 2.011511 -3.8867676 -4.8062525 1.070933 -0.7791043 1.6119076 1.7958591 0.11288308 -2.222344 -0.68639266 2.5749435 2.2860856 -0.7866434 1.5712982 -2.4870439 -1.2773193 -0.89854664 -0.40343386 0.65844643
manipulate -0.45036918 0.42191324 1.6007507 4.9469004 0.9947945 -1.182878 -3.9467564 -1.4351075 -0.13241662 0.7888357 1.3595761 2.2690344 -1.526903 -0.8649408 -1.3705047 2.880196 4.043413 3.89143 -1.5794533 -2.245718 -0.16730715 0.98163766 -1.4066211 -0.53144795 2.8012936 -0.8913108 3.18432 2.7673771 2.267214 1.7710586 -2.2346442 2.8048222 -1.4914256 -1.9366803 -0.6588664 -1.6220732 1.6650345 1.6746446 1.2691176 0.9042538 -0.13107751 -0.99379 2.2736967 1.820986 -3.0510178 0.12429484 -1.8451309 -2.831357 -0.0016516151 -0.98598635
different -0.2783574 -0.7066698 3.7079637 1.023523 0.13545614 3.1896005 2.3657782 -3.7041163 0.74295217 2.3721802 0.8894484 1.2774788 1.421712 0.82458997 0.440135 -1.3096845 -1.4533718 0.66112244 1.0766227 0.67039335 -1.618961 1.6609769 0.61800283 0.7354659 -0.7289455 0.47051138 0.19953422 -2.8595982 1.3829815 2.687543 -1.9707986 -0.07311785 -1.6256307 0.10677792 -2.0517097 -4.049259 -2.1227515 0.12189417 -1.887999 0.8056939 1.9807116 2.812292 -3.3942413 1.195693 -0.38418353 -2.8220365 0.14171836 -1.4686887 0.59741396 -0.04063564
and/or 0.81753343 1.943816 -0.81393355 1.3799765 1.1785368 0.12385215 -0.38168266 1.4681938 -1.2980577 2.7113016 0.07913706 0.24978623 -1.5650657 -0.46498683 1.3353429 -0.60283804 1.7305062 1.547414 1.1363648 -0.5916986 -1.7909418 1.6075076 0.89666355 2.439311 0.78847903 -0.9372506 -1.4774588 2.6603694 0.5424008 -1.8770797 -1.0384252 -0.37819645 -0.7628827 -1.8339415 1.3793386 1.1648657 1.1346787 -0.7985667 1.5273265 -0.21480392 1.2066059 0.09862981 1.4623283 -1.7217072 2.595344 -2.8331301 -0.2003912 -0.2348036 -1.0576555 1.973386
session -5.208901 2.7099605 2.1420727 -0.32470998 4.1218424 -1.2550204 -3.0389614 -5.2241626 3.077338 -1.4570674 0.81729656 1.5587072 1.1859653 0.98245496 0.683543 0.807114 0.37859416 0.2835275 1.62324 -4.8999424 1.402204 -1.8000047 -4.6774087 -1.596948 4.0314393 0.5459441 1.7055628 -3.9961028 -2.2168336 0.76133215 4.330237 5.3249054 -1.8748641 -1.8782188 4.4664154 -2.5142932 -0.017211773 -2.2554448 -3.9499002 0.48096088 3.2292333 2.815447 -5.893301 -0.13733162 1.2371755 -0.94649005 3.6740923 -1.126341 1.7317766 4.631871
operation 0.10250568 0.89011663 2.4995675 2.8744175 0.434786 -1.7188039 2.2786262 -4.7565303 2.3503988 1.7518741 -0.24713176 -0.74854463 -0.6989089 -0.46462804 0.25080532 1.9428004 -1.8926998 0.38743332 -0.73381305 2.3456578 2.1018677 -3.659992 -0.16494234 -0.42357442 -2.8113337 -0.28333983 -3.6749496 1.056739 -0.53333557 0.7784788 -0.37630808 0.1570755 5.7821517 -0.8914838 0.05102932 -4.374155 -0.20039393 1.093458 2.474603 0.7033878 -2.2755353 -0.82346165 -1.6447201 0.9655713 0.83588815 -0.9529472 -1.4344811 1.9262824 0.63611805 2.2680557
share -0.85020524 -2.8250391 -1.4607055 -1.0493349 -0.7353882 0.053858884 -3.0025194 -1.6954592 -1.7495071 3.7126482 1.120939 2.7956264 1.2970833 -0.13246977 -1.6091474 -0.7314575 -1.537469 -2.2181835 2.1787758 -0.55891883 -3.6082084 -2.196803 -0.23670012 -1.3356706 -1.3072716 -6.0419903 2.2652209 -0.9809706 2.722883 -1.06423 -0.054965705 6.2597404 1.1702043 -4.235466 -0.14651242 -1.8665487 3.5474584 1.4399184 -0.29601932 -2.658355 -3.2049634 1.1984323 1.5832663 1.0339986 -1.5891007 2.6763966 -3.8301058 -1.3835804 -0.2577864 0.7587484
activity 0.94068164 0.57939506 3.3434541 1.9706025 1.0656738 -1.2857894 1.28774 -3.1404777 0.078329936 -0.3872088 0.06196655 -2.8426583 -2.9129481 -0.94409835 -0.06709731 -0.28166673 1.3747338 1.7500166 -0.39193356 1.2056643 -0.46810657 -1.422502 3.2115245 -4.4904103 -1.7176027 -0.6779839 -1.6951655 1.1570636 0.1625716 -0.031047229 -1.7155358 -1.9137725 4.2550807 -1.7998059 2.3715813 -0.94019765 2.7637002 -1.6967297 -0.7543282 1.6166646 -1.8774719 -0.75914484 -0.63835627 0.023882927 -2.2568088 -2.063176 -3.0326452 4.954819 -1.3757368 2.7305315
must 0.5756864 3.1656158 -1.9084603 -1.0138098 0.34226352 -2.4784358 0.90366095 -0.16901647 1.9364768 -1.7517295 2.031312 -2.0172334 -0.86814815 -0.18706718 -3.5536785 2.9552042 0.14255552 1.0413414 1.6520592 -2.6995597 -3.9494803 0.7854456 0.92556554 -0.12249378 2.1216555 3.8926272 1.8192424 1.7073517 -0.40596768 0.2395144 -2.097364 1.2285159 -2.857386 -0.16771495 -1.2590214 -2.5189693 -0.1787707 0.3890045 -0.36553124 1.3743321 -0.4200712 1.6639324 -1.574736 -1.0667518 2.1138034 -1.2826483 3.2096891 -2.2448514 -0.05979045 1.9121416
similar 0.5656049 -0.55581677 1.9718826 0.74092394 -1.2507894 3.16376 1.4900205 -0.2793269 -2.7662885 -2.3918643 -0.39444527 -0.89442503 0.9826368 -0.1874079 0.7038396 -0.68048656 1.4674963 -0.88922364 -1.3951082 1.930791 0.77803373 1.4226489 0.20689125 0.71955025 -0.7432285 1.6044264 -1.0904137 -1.2573342 -0.6830157 4.977856 -0.55329734 1.2503542 -0.2851967 1.1305188 0.8492389 0.4175793 -1.4176092 2.3300958 0.63919806 -1.3126587 -0.96594036 -1.3186864 2.6967456 1.0068773 1.5008879 -1.2797736 1.4164228 -2.7717721 1.6733942 1.3596565
part 0.41159403 0.61498886 1.3585851 0.70004195 0.8277687 -0.69460267 0.10291744 -2.0542371 -0.94514537 -0.09503806 0.09792532 -1.7993723 -0.09497348 0.76080185 -2.5095234 2.5283992 -1.0217227 0.7817067 -2.0711966 1.0988857 -2.339195 1.5279051 1.1457976 0.2768153 -0.41551733 0.22643246 -1.2670809 0.16504489 0.95056295 0.82086194 0.09762288 -1.5916437 2.6160603 -0.5098463 -0.009151931 -2.1995697 -0.87973136 1.6554705 0.055606898 0.32605112 -2.711921 1.3154722 0.31216112 -2.2161634 0.7903001 0.015026901 -0.6709734 -2.7443497 1.449332 -0.7674791
design -0.183697 2.5089881 1.6928711 2.432072 0.6144555 -0.91894203 0.10302278 1.1847721 -0.5014568 0.15610284 0.73054487 -1.865968 0.73869795 -2.604551 -2.736063 -0.3382254 -0.21470581 0.8389574 -2.974694 -3.5449095 -0.7579488 3.8635492 -0.9264239 -0.032363363 -1.349619 1.0675917 -1.1509506 0.18049309 -0.47363654 -0.6078169 1.3347695 0.41691038 1.6405585 -1.4799217 -0.7920614 -1.8685657 0.9958554 -1.0344903 2.831071 2.9245036 -1.0229883 -1.7243277 0.19701932 0.60019267 -0.24872594 -2.2370477 -0.19170853 -1.057239 -0.6346263 -2.2094045
connection -0.33566406 1.5380569 -2.0409536 -1.5496355 1.1247654 0.1475316 -0.79199475 -2.9092596 2.4579015 -2.1630569 0.07843579 1.1555531 -2.6910377 1.2745341 -3.1966798 0.7475091 3.0041432 -1.587189 -0.25324857 0.3580235 -3.9781916 2.6299982 -1.0156167 -2.9408817 1.0065159 -0.6244632 2.2425468 -3.3115957 1.7078112 -2.2732334 2.683062 4.2758355 -0.6118001 -0.34940425 1.6469963 -1.9917321 2.9434505 -5.5886426 -0.6287915 -2.774643 0.25676656 2.7886312 -2.682276 -0.2332899 1.0084095 3.3634887 -0.6720004 0.55608994 -1.4653248 0.76498896
location -1.0427376 -2.561315 -3.9739118 -1.4551324 4.0974545 1.0234071 0.5685936 0.45408562 0.2589766 2.3721223 -1.3952947 -0.23859408 1.3045539 1.3681904 0.2038787 -0.74417305 1.422334 1.7312872 -0.028847452 0.25649473 -2.380161 -1.8824693 0.39467564 -3.4750135 0.4599594 -2.462726 1.8908775 1.1096022 2.7874455 2.8739307 -4.0943017 -0.96683985 -0.9301663 -2.2113197 1.7975414 -1.2084575 0.33400902 -0.92647314 0.46304616 -1.1921182 0.3522269 1.5199976 -3.247554 -0.6350284 -3.16951 -1.37543 -4.8259645 -0.40393353 0.01756929 2.0465457
need 1.5064404 1.2411168 -0.7578616 -0.15874653 2.9058762 -0.62332857 1.936965 -1.2047957 0.405012 -1.5084447 1.5004332 -0.7280307 -1.4645126 -1.1191503 1.0478828 -1.047336 -2.1002285 -0.49946657 1.0097235 -0.8324148 -1.0763074 1.0035003 0.4215305 -0.6889877 -2.554454 -1.195936 -1.3928288 1.5149758 -0.5243712 2.6841176 1.2276012 -0.84600544 2.1630101 -1.0376203 0.047140338 -1.9344026 -0.117732145 -0.10520654 2.0454056 0.16147715 0.18320616 3.0760686 1.7279694 -0.24757819 0.65290457 -3.6129813 0.7168568 0.24615674 0.65256304 1.4359342
multiple 0.24735975 0.28806722 2.686316 1.9516917 2.2762642 2.8735168 1.8537314 -3.822203 0.8041647 3.9337301 2.1455386 2.9625046 0.17020401 1.7559128 -0.062219027 -0.33666927 -2.2515094 1.0881673 -1.670729 -0.6879678 -0.87615764 -2.0821729 0.43465072 -0.24003226 -1.7054493 1.6136453 -0.6692792 -2.7103505 -0.05635336 -0.5691169 0.83707595 1.2055304 -0.19027986 0.6714671 -0.4801099 -1.3134925 2.0567877 -0.60981447 -1.1223341 1.5086656 -0.36181813 1.4595107 -0.47377804 -1.0840029 -1.6366981 0.27225605 -2.3496816 0.6271766 1.5191989 0.60016394
without 0.75034976 1.1807461 1.5635989 -1.1596122 -1.4635104 -2.0522115 -1.91778 0.72355384 2.4811642 -1.695915 -0.13274454 0.40680453 1.7225543 -3.263312 1.2551737 1.2516537 -1.76799 1.2066079 -0.05095727 -3.6691067 -3.6253605 -0.13771082 -0.18576697 -1.7063311 2.0464587 0.7636936 0.81939703 0.25316596 -1.9005666 -0.29877016 -0.27372652 2.8179128 -1.3113136 -2.1666899 -1.8998429 -0.32834074 -0.8442281 -1.0047054 0.9561038 0.7796179 1.6200798 -0.81404173 -0.6230898 -0.12606749 -0.17822576 -2.6329021 1.075844 -2.8910582 0.7779726 1.8518692
trust -1.9938238 2.827367 -3.9576712 -0.46643406 1.022916 2.376245 -1.9818577 -2.9011946 -0.46641704 -1.8229276 1.4474936 2.2398086 0.0017884384 -1.1407044 -2.7427177 1.8945829 -2.472725 -0.28600764 -1.2955617 -0.8127791 -2.0092814 0.2930395 2.673655 0.09018895 0.23416996 -0.066522166 0.8642931 1.2403893 2.0939684 3.5627701 -1.3368074 -0.93043214 -1.9146183 -0.5177841 4.1153755 -3.4123266 -0.5870949 -1.020272 -1.0062017 2.7461817 -1.5580609 1.8605233 2.1039066 -1.14915 1.1760927 0.2538276 -3.0682995 -2.7327838 -2.9566422 -2.3571222
attack_pattern -3.0983512 -0.7394435 -3.7927053 1.8725122 0.21525043 0.8940973 -2.5916784 0.45153216 -3.9970849 -4.1227684 0.057811923 -0.568415 -1.2510655 1.8888882 -2.472967 1.4528139 3.6377928 3.8900135 -1.9002738 3.9982598 1.823665 0.6759959 -1.9071171 -0.9783085 -1.0888561 -0.21177681 1.5165426 0.008240807 1.9607283 -0.425876 -2.4541838 2.577533 -2.2454507 -1.549659 0.5765026 1.0248263 0.9013379 -0.60323787 -1.1062062 -2.5640051 1.7155647 1.4434946 -1.9526318 -3.0205567 2.4269981 -2.5009847 -1.480115 -2.821153 -2.8806124 -2.4511936
place -1.3669646 -0.17019317 -1.6628497 -0.7139086 0.8576865 -0.30919665 -2.6373198 -0.17895284 -0.70274216 1.4549192 0.03014045 0.024256969 0.5571843 -0.9936209 3.33868 1.570784 0.07375286 1.2872062 -1.240667 -2.872156 -1.6070218 0.7801123 -0.95310974 0.0611268 1.1830913 -0.5315478 1.1952412 1.6711283 0.90245235 2.4715347 -2.1421182 -0.94691205 -2.68353 -2.01169 -0.61025137 -2.8752518 -1.4317689 0.2862139 0.06677775 0.86512274 -1.6746926 2.587249 -2.2388158 -0.91469735 -1.5230263 -0.6999601 -3.2411616 -1.5174236 -3.3667607 1.8586079
level -1.314364 2.724483 -0.18868215 -0.37646592 2.808442 -0.8170233 -0.25843376 -1.3325273 1.4505597 -1.6542616 0.12799153 1.034561 0.51039624 -0.22499473 -0.24967092 1.1226906 0.14455572 -3.7772892 1.1740695 -1.3724455 -3.0592797 3.814149 -0.31593838 -1.2346174 -0.45623526 -1.31951 -3.5515368 0.34324074 0.57705486 2.9729967 0.19762807 -0.48109308 -1.1464244 0.74238217 1.5661082 -2.2612736 -0.79837185 -1.0801858 0.40782797 1.7621847 0.24534579 3.4568267 -1.4831243 -1.2902243 2.9634428 -2.6113877 -0.3400022 -3.3671033 -2.070043 2.7298694
limit -0.49766678 3.7681026 0.22127455 0.5648828 0.49269116 -2.375399 -0.8482841 0.3330424 1.7146021 -0.5983769 2.5609686 3.3449285 -0.42418915 -1.3841251 0.6808907 -1.460565 0.65154314 -2.311368 1.2971691 -2.5125966 -3.507356 0.67654216 1.1965538 -1.6545483 1.1263428 -1.2838928 -0.9854045 1.3955054 -2.643266 0.94745237 1.6750826 -0.4036483 -0.1263921 -0.27163863 2.0200624 -2.426622 3.2580798 -2.1798563 -0.24958637 0.309516 -1.8187864 2.696865 0.8705884 -1.529505 -2.1116915 -2.0258012 1.03334 -2.0876281 -2.973749 2.8181763
obtain 2.421113 -0.57852495 -1.6917977 0.29470396 1.6842408 1.0784607 -3.322546 0.072034955 2.097289 -1.5534703 -0.5826351 1.0451292 -1.4990753 -1.3191435 0.80627227 -3.2974298 0.098902985 -0.51326984 1.2087839 -1.6830645 -2.5372527 0.9212099 -2.70882 -4.069902 4.1523056 -0.6192113 2.4037144 1.9307399 -2.632595 2.3739235 2.445612 2.995493 1.3829578 0.15948768 0.126062 1.6575415 -1.7452865 0.25452602 0.3644705 0.11770815 3.0126245 0.93092394 1.691354 1.242592 0.36311537 2.0956466 -2.4884806 -4.444341 0.6796194 0.49226594
since 1.2262709 1.4481013 -1.8012315 -2.0611274 0.08363591 0.9873401 2.4963493 0.7222319 -1.048751 -2.026388 0.43006262 -1.9217085 0.42760932 1.2421854 0.9881327 0.15423615 -0.47554675 -1.0080161 0.43682045 0.61340004 -0.1263652 0.3011584 2.1373398 0.08388856 -1.0268822 1.0963371 1.7500815 -0.12732433 1.2573354 1.2380223 0.10439761 -1.9478688 0.9796436 1.8412666 1.1453967 -0.7186716 -1.8363103 -0.9275004 0.0035479206 0.1620088 -1.9066017 4.016521 -0.55968416 1.6214907 1.0271958 -3.6015348 -0.421637 1.2449855 -0.37907252 1.3890817
disable -0.24456267 3.913937 -2.9663281 -0.82547414 -3.1150372 -1.1933416 -1.6548448 0.33370402 0.41409397 0.21123731 -3.0069864 1.9956578 -2.510091 -1.3946968 1.2020991 0.6324785 2.7911386 -0.12730849 -0.23206487 -2.4880996 -3.1284227 0.67016876 1.6529875 2.4242184 -0.741331 1.0968493 -0.3383638 1.9299465 -1.5500346 -1.8693144 1.258978 -0.09224945 -3.669241 1.8968227 -0.0077300565 -3.2351394 -2.0075784 -0.7485664 1.3637366 -2.0143392 -3.0342746 2.4075067 3.0085874 -2.2916124 -0.16574912 -1.9008738 0.6654827 -0.8068916 -3.3198745 0.35649654
number -0.76537335 2.8551452 1.0301346 -0.7515156 -0.49843502 -1.7078652 3.0526536 0.3216618 2.984977 0.1341401 -0.52017695 0.4403732 -2.4303122 0.102779165 1.3159764 0.78235465 0.20174134 -1.2313395 3.0633817 -2.1297307 -0.057769645 0.9497941 -0.49278456 -1.3667077 2.8060918 1.3449327 0.9774258 -2.0355613 -2.08146 2.2484157 3.272516 1.3551071 0.24912201 -1.9976423 -1.3166988 -1.028222 3.5346427 -0.7881657 2.189971 -1.2918831 1.7357268 1.0455533 -1.9823067 -1.5004375 -0.9143844 -1.5984237 -0.24287404 1.6661294 2.6420887 1.7037926
use_whitelisting -2.9721944 -0.27457875 2.903462 -0.22807395 2.1463897 -0.029775081 -2.935145 0.947237 -2.1759582 1.9956937 -3.0993087 -0.7936159 -0.6821798 0.9479595 -2.3490744 -3.6906488 3.6605768 0.61588156 1.7045217 2.8774545 -0.14330518 -2.9388063 0.21478389 0.47517774 -0.40906826 -1.954799 1.0814952 1.6013931 -0.6881394 -1.3214715 -0.53301 -5.084088 1.293648 0.17240646 1.8617327 1.7076312 -2.4617581 -1.2609301 3.3059442 -2.203085 0.99190646 -1.3933185 2.2404978 2.290376 0.75148666 -5.014529 -1.5510892 -3.2198195 -0.6979158 1.546344
utility -1.793742 -3.057312 0.1252185 0.4142462 -5.24573 3.544369 -1.4208784 -0.84064424 -1.2595748 4.773596 -2.3953035 -1.3248868 -1.7336183 2.3374147 -0.15181114 0.74187356 1.901214 -3.2161896 0.6679305 3.8157556 -1.4423203 0.41229418 2.2578838 -0.601765 -1.3518696 -3.5670855 0.8008993 -3.936926 -2.5410066 -0.36087003 3.4540744 -1.0094867 0.13031386 0.57196367 1.6917496 -0.73805934 -0.78310674 4.18795 4.604668 -3.8252034 -0.9784372 -0.9607136 -0.881565 -1.5833113 2.3348444 -0.06716036 -4.383736 -1.6384383 3.9476192 1.6341237
citation:_nsa -0.563792 1.3904029 0.22830805 -1.9884962 -0.31862748 -0.6011974 -0.21221924 0.78486633 -1.3481754 0.32328257 -2.1009471 1.0791742 -1.3684994 -0.14723185 -1.3954649 -2.0278125 2.0668514 0.76511264 2.6344056 2.4572961 -0.007573932 -1.4316866 0.8910969 0.12709439 0.4475965 0.5975823 0.44530666 0.6016237 0.25738126 -0.3539545 -0.6409064 -0.3568984 0.6015809 0.44205403 2.216066 2.3045988 -1.6053534 0.51640797 0.7786526 -2.2173185 1.2254275 -1.2865225 1.0691211 0.45719594 1.7764516 -1.3025507 0.061325654 -0.69646835 0.10657224 1.779372
command_jpcert -1.0240828 0.7126295 0.6989142 -1.4418495 0.44827086 -0.07455935 -0.31622624 0.16780242 -2.0629258 0.8939068 -2.2333505 0.0030708038 -1.8386629 0.34260082 -1.9116125 -2.430154 2.4969602 0.99194425 2.5620904 2.4164891 0.29855374 -1.5857495 0.5250252 0.14995739 0.39898953 0.43720952 0.9187418 0.16678968 -0.07484403 -0.84857994 -0.4532967 -0.3148688 1.177706 0.47689208 1.9551228 2.0687068 -1.5309129 0.3593431 1.9830105 -2.3398619 1.0625712 -1.0409696 0.6888168 0.56034577 1.1687591 -2.3005605 -0.9600034 -1.730953 0.2565698 2.0219321
mechanism -0.22958069 0.2033034 0.45397982 -0.57311064 -1.4805918 -1.7243154 0.1379516 0.16710162 1.8007212 -0.23275389 -0.2851487 3.09998 -1.1932791 -0.45830795 -0.10264318 -0.092105314 -1.1180423 -0.49123088 0.21202178 -0.65714955 -1.6531893 0.8413581 -0.87626505 0.17829615 2.7450628 -2.2103734 -0.4714601 -2.2292018 -2.822032 -0.031642493 -0.09638185 -2.0094233 -1.2408745 0.31900266 1.9320036 -2.5677922 -0.057533666 -3.382548 -1.544996 1.3809165 2.8963974 0.94388163 0.20193036 -3.4780042 -0.88914496 -3.5518656 -0.30075303 -2.824359 -2.0735886 1.5448546
2010_tool -1.974464 0.5563571 2.0219314 -1.0221225 1.4158783 -0.21023425 -1.7348939 0.9674015 -2.481885 1.6741068 -3.0571375 -0.63161004 -1.5333588 0.5758051 -2.3142755 -3.2526088 3.6098902 0.96067244 2.5702589 3.013147 0.57503796 -2.744493 0.29040614 0.5929772 0.055870138 -0.5210861 1.3234314 1.1713697 -0.19125244 -1.2544917 -0.4307458 -2.82644 1.4155602 0.25251806 2.1238437 2.574662 -2.4580176 -0.66740716 2.6678646 -2.2133217 1.5219581 -1.4787204 1.8560115 1.8160638 1.4227933 -3.473402 -1.1561326 -2.6763327 -0.02187224 2.130726
available -0.3123274 2.4800174 -2.8015635 -0.12232653 1.1571997 2.4261603 -0.99985576 1.1135594 1.4645379 2.8260784 -2.075297 -0.5906051 1.080528 1.571511 -0.53541183 -1.0005249 2.2550123 0.41466287 -0.44414943 -2.9623916 -4.1606784 0.93407017 -2.1178274 -2.4407775 0.8811623 0.453677 -0.27121758 -0.7210894 -2.8093278 -0.97699285 0.3446415 1.8926073 1.8124342 1.4824185 0.7277823 0.76363623 2.5310738 -1.9012245 -0.8445444 0.20989431 -0.94979 1.0445389 -0.32512927 -1.5559694 -2.346181 -4.6984253 -0.33242306 4.1408544 0.44490048 1.425854
citation:_windows -1.3214287 0.924909 1.0031068 -1.3881392 0.6907703 -0.4552331 -0.86209446 0.9392666 -2.0670035 1.5331756 -2.667708 -0.03039263 -1.2118645 0.82024384 -1.8209721 -2.6070132 2.9405408 0.9109967 2.7890959 2.5484388 0.3106427 -2.13069 0.21821658 0.43270844 0.1679228 0.036410764 0.8985755 0.5006382 -0.077417545 -1.0548848 -0.24787658 -1.5782052 1.0080876 0.37417248 2.1609004 2.529203 -1.6415046 -0.23414293 1.550193 -2.1355762 1.5580761 -1.2081522 1.2167751 1.1456063 1.4161503 -2.23707 -0.5503188 -1.4686881 0.25517133 2.0088599
citation:_beechey -2.5789835 0.07266801 2.4488475 -0.6468348 1.9452842 -0.38027295 -2.3453152 1.870609 -2.4922352 1.9792633 -3.7723374 -0.87967956 -1.2247846 0.9061773 -2.2806861 -3.7199006 4.057855 0.8909336 2.629261 3.7445736 0.9405268 -3.276928 0.18980448 0.95605844 -0.29820612 -1.3050764 1.4410728 1.832295 -0.13683037 -1.3294892 -0.32369065 -4.483041 1.4415395 0.24723911 2.3866744 3.328987 -3.0283477 -1.0744686 2.6575086 -2.4499292 1.9494495 -2.1938639 2.4614756 2.6162663 1.6578705 -3.221866 -0.63548595 -2.6546168 0.40381175 2.1688123
certain -1.2666467 -0.030750236 1.2384335 -0.15353583 -0.13401565 -1.529997 1.8639472 -1.4786512 1.7844839 0.042354167 0.3146303 -0.20530847 0.4258199 1.0326505 -0.8487051 -1.1893997 0.19907454 -0.1972761 2.0823963 -0.24648538 -3.597613 1.426863 1.1967908 -0.3123844 0.2731103 -0.5423513 0.9872281 0.15331766 1.188998 2.12288 -1.3771672 -3.244646 -0.36143008 -0.87524396 -3.1161175 -2.5006967 -1.3157998 -1.4310721 1.8639524 -1.2346469 -0.44925618 2.0145571 -1.2006835 -0.6648056 0.25985146 -4.374256 0.8975685 -0.9978782 1.3094407 2.6078918
link 1.49224 -0.40143272 1.8669962 -2.307083 0.26622558 -1.937381 1.3427056 -0.36927387 -3.6162925 -1.848888 -0.16175632 -2.7120442 -1.1967839 1.6211561 2.518572 -1.5958234 0.16521604 3.8258579 -0.61461306 1.7936128 1.25089 -0.9407348 1.7967685 -2.8986454 2.3461866 0.5575085 -0.7429047 1.6156025 2.370871 0.0010509585 -6.0545588 2.8614058 3.6682293 -4.0087037 -1.0491375 -3.285034 -3.3490362 -0.17289966 -2.472329 -0.08355663 -4.0427074 -3.277647 0.43350646 1.4890049 -1.9237305 -1.595621 3.282929 -2.4112997 -2.5065079 -2.1380491
like_applocker -1.6839863 0.49221492 1.548221 -1.1342758 0.8522619 -0.32039094 -1.3118204 1.0217457 -2.4887931 1.8894373 -3.073336 -0.60489714 -1.2344555 1.0475454 -2.1555011 -2.9353738 3.211544 1.009049 2.6139262 2.9219728 0.5169608 -2.6167238 0.14057006 0.6364425 -0.025615636 -0.36986315 1.1850241 1.0072116 0.028542854 -1.1722189 -0.3931322 -2.652185 1.2129089 0.34511808 2.034966 2.711533 -2.1611261 -0.47212884 2.3206964 -2.2722702 1.5091786 -1.4692403 1.8816733 1.5184019 1.3215334 -2.8885298 -0.78778833 -2.1107934 0.14334634 1.8412902
base 2.0019388 -0.08172713 -0.8610192 0.9957074 0.90828013 -0.61570907 1.289739 0.76525414 -2.0875971 1.9316748 0.5558689 0.20456803 0.23175414 1.5066727 -1.5552926 -1.1706129 0.10606343 1.0779383 1.0113322 1.974357 -0.96718323 -0.56102216 1.0994942 -0.12649009 -1.686601 -0.6179217 -0.048680503 -1.2443868 1.9510866 0.28893653 -1.9002795 -1.0753306 0.3862465 1.5166072 -1.2683822 -0.7224254 -0.32045433 0.38435575 -1.5495132 -0.26816615 -0.28567016 1.0072111 0.112108424 -0.35323632 -1.1445729 -2.3849487 -1.3633727 -0.8425037 -1.7089626 -0.90404093
m_applocker -0.13711475 1.239889 0.25166702 -1.8063015 -0.4074575 -0.3772755 0.4882535 0.26684672 -1.7779247 -0.013893191 -1.6167761 0.6564842 -1.8735858 -0.31067148 -1.7359399 -1.8753825 2.1329732 0.9088249 2.7425885 2.2713966 0.66987526 -1.4962606 0.62733024 0.42443782 0.7329238 1.5637214 0.29033083 0.24385713 0.32591826 -0.90165704 -0.7863774 0.72315055 1.2190053 0.9723432 1.8675809 2.573124 -1.1356697 1.6306372 1.1916223 -2.4456043 0.9411489 -1.0280337 0.61050427 0.052811265 1.4003334 -1.5661299 -0.5340636 -0.64437604 -0.081822164 2.0119922
exe -0.58955044 0.4826967 -0.5407245 -0.17236304 -5.0968394 1.2133998 -0.75936395 3.045114 -0.74748677 1.8460506 -4.5279746 0.24536546 0.32687515 2.4002383 6.254158 0.9634559 2.0544388 -1.2784346 2.4286423 -1.86647 1.2070823 -3.347521 2.4894125 1.9614589 1.4645867 -0.7649383 1.63094 1.1409183 -4.7559743 -0.19181135 0.5959447 -1.8952392 -1.5246154 1.5148406 1.1388186 1.5198952 -0.8395857 8.387302 4.7590475 -6.247961 -1.64219 -1.9313666 -3.3793287 -4.467289 1.3806691 -2.6887794 -5.074848 -0.96401364 -0.91125315 2.6871433
scan 0.3767813 -1.051131 0.5700107 -0.42164716 1.0716256 -1.0616053 2.5514846 1.328267 0.62964123 3.2835789 2.2724986 -3.2765925 -2.8032343 2.0519807 -1.2338244 -0.7389901 4.005152 -0.7461868 1.828036 1.1353381 -6.819148 -1.0061622 -1.8486986 -3.0321288 0.5086787 1.7836795 -0.0050768014 -3.3036892 -1.2021239 -4.3026123 2.4561808 -1.1817703 1.0094365 0.95419216 -1.7048688 -0.4631558 3.6125014 -2.168523 3.165727 -0.653063 0.07863942 -0.35573107 -1.0285044 -1.3471735 -2.0697947 -3.299992 -1.3487377 2.3498821 0.96767724 1.7757998
windows -0.03628941 0.7075386 -2.3847942 -1.2213172 -1.3193979 0.1659458 -2.9057689 0.6446739 2.5051465 0.98431057 -3.2578933 -0.16771463 1.3643333 3.2236464 -0.5199322 -1.3527524 0.6776791 -4.1179914 0.51277757 -1.6635206 1.8152696 -1.8265381 2.6430588 0.97131354 -1.214044 -1.8571573 -0.5570555 -1.5602962 -4.419363 -0.0018068766 1.7344626 0.78373337 0.35213 0.4375855 1.9764647 -0.08315468 0.067161456 3.562711 3.6549926 -4.4240246 -0.48793593 1.4029927 -0.51771116 -1.8628715 1.8164215 -0.16472591 -3.0279412 -1.1182845 -2.977545 1.0639307
packet -0.0065546227 1.4597939 1.191586 -2.004952 1.2820115 -2.2701225 7.5677714 -0.56020224 1.6134045 -0.5007376 0.48440084 -0.35922924 -3.0675502 2.3431168 -4.1778293 0.51176804 2.6497815 -1.0458596 0.086982936 0.69342977 -3.4770758 3.0514126 -0.61249065 0.759454 -0.44764128 2.7982411 3.8162448 -4.5252433 2.135575 -1.8066692 1.6382871 2.6624298 1.4104309 -0.31402463 0.98793936 1.278483 3.2380075 -6.6893077 -0.8844826 -4.837738 3.6316893 2.38262 -2.096364 -1.3659539 1.7698781 -1.6736048 -0.9780215 1.9546158 2.5979302 2.0062566
like 0.2187361 -0.68217725 -1.2382848 -1.2463375 -1.9704736 0.08289057 -1.2339169 1.6226223 -0.19626895 -0.3711374 1.0055168 1.2791288 1.0845077 0.9858844 -0.17733397 -0.87609226 0.8469522 -0.34048495 -0.3088775 -0.2161326 -3.15446 1.4740359 0.9020369 -0.8606396 -1.207997 0.030708445 3.0284266 -1.4128729 -0.21628125 -3.2160506 1.0881153 2.2224302 -0.78370535 -0.0781497 -0.13467368 -1.0616964 -0.16013882 -0.66536325 1.9933147 -2.2467513 -0.8592477 -0.16177613 -2.1703448 0.4374658 -0.7332081 -0.33964813 -0.05090763 -1.730664 0.9677243 0.48377934
occur 0.4920414 -0.5078317 0.20193268 0.09813611 1.9378377 -1.7241247 0.48853537 0.06438323 -0.17085522 -1.2581751 0.6329514 -0.42491555 -0.5542369 -0.20594124 -1.6106495 -1.1561103 2.0842812 1.706284 -0.9400807 0.6171195 -1.2895377 1.2582804 0.7485114 1.7470745 -0.5411393 -0.44797668 1.0682114 0.88028413 1.8645747 0.65288675 -0.16570966 -1.8075894 -0.81723464 -1.5438255 -1.2228363 -0.51668483 0.33641577 -1.5916045 -0.49499992 -1.7306633 0.21491481 2.2818468 -0.82919616 -0.5309467 -2.6435115 -1.7537193 -2.5292556 -0.111430585 -1.2279606 1.0583906
registry -2.371742 0.9933054 -3.6863866 4.1382627 -1.0709033 0.017595233 -3.1328888 0.30035692 -1.3237557 4.294816 -3.205949 0.46516612 -3.1712666 1.8927258 1.5337762 -0.86742496 5.039177 -1.0318485 3.6215842 -1.581784 -0.49780115 -1.4070097 -1.5916008 1.0430669 3.9573452 -3.075798 1.5819966 2.766926 -4.4089265 0.9046104 0.32538518 0.25804597 0.62899685 -2.8099353 0.2956451 0.47108483 -1.1539122 3.4671156 1.6421487 -1.4945288 2.5742748 -2.440432 0.45887938 -3.6679382 0.84032845 -3.030598 -3.0037117 -1.2638195 0.9030085 -0.8761052
give 1.0439236 0.095013626 -2.3968186 -0.12580049 0.053373255 -1.0503922 -0.08982347 -1.3206946 1.0335283 -1.1679565 2.7220764 0.045595422 -2.3569522 2.5697677 1.2350254 -1.043663 0.07897137 -0.8179172 3.1095743 -0.02792919 -1.6032695 1.6114391 -0.8472363 -3.10295 1.3347974 -0.061071496 0.36818615 -0.6937211 -1.1777785 2.4923537 -1.5351795 -0.8588561 0.11754777 -0.7430269 -2.073667 -2.546569 -0.48249635 -0.29235628 0.70965284 0.25799483 1.3456008 3.3715036 -2.3596358 -1.8724264 -1.5329217 -1.5101978 -1.539603 -0.6616466 -0.3776822 -0.40652004
form -1.9218137 -1.3290418 1.7304535 -1.7136291 -1.5051771 -2.0268133 0.8029596 -3.2534223 -3.1395392 -1.095054 -0.056292158 0.031619757 -1.0713449 -1.2197604 -0.014677525 -0.021757046 -1.2927636 2.2970119 2.2740867 1.4252912 0.51250756 0.060402676 -0.6002018 0.56573856 1.1607221 0.28516087 2.1067145 0.47219124 -3.782478 1.4023485 -2.7294173 -0.84513074 -0.085978284 -1.4028249 -2.0563636 -1.8882174 -2.7555392 -0.07250497 0.57111746 0.640532 0.77274275 -0.02414377 1.2776961 0.3025459 -1.3244113 -0.54946554 2.779963 -3.5071883 1.3573105 -1.8129292
implementation: -3.7248669 0.5992296 -0.36289063 -0.10029832 -0.7358104 -0.61730504 1.3439946 -0.79355466 -0.4967069 2.9168892 0.74521613 2.489913 -0.23056403 -1.5239992 -1.8553365 2.0058446 -0.00611724 -0.06408005 1.4538982 -0.71134216 -2.203587 -3.7573686 -0.6233592 0.5876937 1.1360097 0.2762413 -0.49171796 -1.447195 -0.55719405 0.41090855 0.24286856 -0.61744267 -1.784994 -0.94487995 1.3218058 -0.34954652 0.94798094 0.092996135 0.11541493 0.7340125 -1.5426354 -0.8747963 -0.15474696 -2.9738832 0.83701134 -2.8228273 1.2163891 -1.9138558 0.26568404 1.0259248
software_restriction -0.06723649 1.3375713 0.533801 -0.85335815 -0.5738127 -0.41807285 -0.5807742 0.619808 -1.6538408 0.5258819 -1.441624 0.81678975 -1.1313441 -0.7648596 -1.1453093 -2.5178308 2.0582612 -1.0754243 2.9512155 2.4047763 -0.21541929 -0.9592588 0.7508616 -0.7816255 0.4778084 0.23922741 -0.7837019 -0.41920364 -0.26658675 0.015342347 0.23932606 -0.2691473 0.45160997 1.3410273 1.1366003 1.8848441 -0.80984914 0.8921294 1.1664681 -1.7107738 -0.14423099 -0.16525957 1.0679616 0.7202162 0.2929514 -2.5674088 -0.52440673 -0.13541138 -1.0556878 1.2434256
remote_access -1.2010921 -0.09170726 3.5525508 -0.26990485 -1.6128209 4.837061 -0.35235968 -1.1998283 -2.8287578 3.7419665 -4.2544727 -0.23013021 1.9518523 -0.034124263 -0.8636557 -2.0566783 3.4689407 -3.3674905 -1.8130101 0.025567159 -1.8447651 -3.2608159 -0.6748903 -2.8072066 -1.3776184 -2.9386706 -2.7263768 -2.3223038 -1.3949705 -0.2845548 0.7076379 0.21075837 1.8738506 1.0689014 3.8434553 -0.11385496 3.0355418 0.93850917 0.20397718 -1.2491417 -3.7261806 0.095998056 0.17091893 2.5813525 -4.2561746 -1.9278605 -3.022127 4.937351 -5.09429 -1.0806129
new 0.40120754 2.508576 -1.0743549 0.14382608 1.7358862 1.2769388 0.838577 -0.18541391 3.5432167 -0.45492744 -0.8209329 -0.40662667 0.22851828 1.1057341 1.4326929 2.3522632 -0.71568 0.04258015 2.3863416 -2.0766275 -0.3578417 -1.9462817 0.06562071 -0.4272215 3.3017466 1.9101201 -0.7685893 0.5626951 0.16628543 -0.32088947 1.074249 0.56368893 1.0029885 0.9138993 1.1158599 -0.08798387 -0.01053221 0.25260693 -0.10644959 1.0470488 0.93008286 -0.42478883 -1.5442848 -1.690833 1.0604383 -2.4909713 -0.859454 -0.50418127 0.6493263 -0.5942546
detect -0.03709181 0.8246245 -0.05484506 -0.71856666 -0.23580185 -0.86657476 0.41899014 -0.23506878 0.18406706 -1.3456541 1.5217199 -0.26517618 -1.6041892 -2.2813342 -1.0032784 -0.4209212 2.8454142 0.58066857 1.7900076 1.780801 -3.2364419 1.5639851 0.6300866 -2.46163 0.69705343 1.5508512 0.03459334 -0.72472477 -1.9372591 -2.143174 1.9343263 -2.1741738 0.038050752 1.5229375 -0.36930844 -0.3968998 3.1724904 -1.1298194 0.4656437 2.0875685 -1.3428066 0.11485621 -0.18133266 0.71751475 -2.2837086 -2.6627686 -0.50117797 1.477943 -2.1648173 -0.05568164
